<?xml version="1.0" encoding="UTF-8" standalone="yes"?>
<PMML xmlns="http://www.dmg.org/PMML-4_4" xmlns:data="http://jpmml.org/jpmml-model/InlineTable" version="4.4">
	<Header>
		<Application name="SkLearn2PMML package" version="0.112.1.post1"/>
		<Timestamp>2025-01-29T13:42:55Z</Timestamp>
	</Header>
	<DataDictionary>
		<DataField name="y" optype="categorical" dataType="integer">
			<Value value="0"/>
			<Value value="1"/>
		</DataField>
		<DataField name="Unnamed: 0" optype="continuous" dataType="double"/>
		<DataField name="level_0" optype="continuous" dataType="double"/>
		<DataField name="index" optype="continuous" dataType="double"/>
		<DataField name="messageHopCount" optype="continuous" dataType="double"/>
		<DataField name="oldFriendWithDestination" optype="categorical" dataType="integer">
			<Value value="0"/>
		</DataField>
		<DataField name="oldRelayBattery" optype="continuous" dataType="double"/>
		<DataField name="oldCommonCommunity" optype="categorical" dataType="integer">
			<Value value="1"/>
		</DataField>
		<DataField name="oldDataMemory" optype="continuous" dataType="double"/>
		<DataField name="newFriendWithDestination" optype="categorical" dataType="integer">
			<Value value="0"/>
		</DataField>
		<DataField name="newRelayBattery" optype="continuous" dataType="double"/>
		<DataField name="newCommonCommunity" optype="categorical" dataType="integer">
			<Value value="1"/>
		</DataField>
		<DataField name="newDataMemory" optype="continuous" dataType="double"/>
	</DataDictionary>
	<SupportVectorMachineModel functionName="classification" algorithmName="sklearn.svm._classes.SVC" classificationMethod="OneAgainstOne">
		<MiningSchema>
			<MiningField name="y" usageType="target"/>
			<MiningField name="oldFriendWithDestination"/>
			<MiningField name="oldCommonCommunity"/>
			<MiningField name="newFriendWithDestination"/>
			<MiningField name="newCommonCommunity"/>
			<MiningField name="messageHopCount"/>
			<MiningField name="Unnamed: 0"/>
			<MiningField name="level_0"/>
			<MiningField name="index"/>
			<MiningField name="oldRelayBattery"/>
			<MiningField name="oldDataMemory"/>
			<MiningField name="newRelayBattery"/>
			<MiningField name="newDataMemory"/>
		</MiningSchema>
		<LocalTransformations>
			<DerivedField name="minMaxScaler(messageHopCount)" optype="continuous" dataType="double">
				<Apply function="*">
					<FieldRef field="messageHopCount"/>
					<Constant dataType="double">0.1</Constant>
				</Apply>
			</DerivedField>
			<DerivedField name="standardScaler(Unnamed: 0)" optype="continuous" dataType="double">
				<Apply function="/">
					<Apply function="-">
						<FieldRef field="Unnamed: 0"/>
						<Constant dataType="double">177631.29724655818</Constant>
					</Apply>
					<Constant dataType="double">99769.01581821532</Constant>
				</Apply>
			</DerivedField>
			<DerivedField name="standardScaler(level_0)" optype="continuous" dataType="double">
				<Apply function="/">
					<Apply function="-">
						<FieldRef field="level_0"/>
						<Constant dataType="double">557985.2118272841</Constant>
					</Apply>
					<Constant dataType="double">283012.24960445194</Constant>
				</Apply>
			</DerivedField>
			<DerivedField name="standardScaler(index)" optype="continuous" dataType="double">
				<Apply function="/">
					<Apply function="-">
						<FieldRef field="index"/>
						<Constant dataType="double">559373.5560075094</Constant>
					</Apply>
					<Constant dataType="double">284755.2381692303</Constant>
				</Apply>
			</DerivedField>
			<DerivedField name="standardScaler(oldRelayBattery)" optype="continuous" dataType="double">
				<Apply function="/">
					<Apply function="-">
						<FieldRef field="oldRelayBattery"/>
						<Constant dataType="double">0.5786148678959008</Constant>
					</Apply>
					<Constant dataType="double">0.27875893053877726</Constant>
				</Apply>
			</DerivedField>
			<DerivedField name="standardScaler(oldDataMemory)" optype="continuous" dataType="double">
				<Apply function="/">
					<Apply function="-">
						<FieldRef field="oldDataMemory"/>
						<Constant dataType="double">0.38319023779724654</Constant>
					</Apply>
					<Constant dataType="double">0.09775338746442234</Constant>
				</Apply>
			</DerivedField>
			<DerivedField name="standardScaler(newRelayBattery)" optype="continuous" dataType="double">
				<Apply function="/">
					<Apply function="-">
						<FieldRef field="newRelayBattery"/>
						<Constant dataType="double">0.577484589034341</Constant>
					</Apply>
					<Constant dataType="double">0.2646521191441638</Constant>
				</Apply>
			</DerivedField>
			<DerivedField name="standardScaler(newDataMemory)" optype="continuous" dataType="double">
				<Apply function="/">
					<Apply function="-">
						<FieldRef field="newDataMemory"/>
						<Constant dataType="double">0.40417209011264077</Constant>
					</Apply>
					<Constant dataType="double">0.10436850951908787</Constant>
				</Apply>
			</DerivedField>
		</LocalTransformations>
		<RadialBasisKernelType gamma="0.10330984189051101"/>
		<VectorDictionary>
			<VectorFields>
				<FieldRef field="minMaxScaler(messageHopCount)"/>
				<FieldRef field="standardScaler(Unnamed: 0)"/>
				<FieldRef field="standardScaler(level_0)"/>
				<FieldRef field="standardScaler(index)"/>
				<FieldRef field="standardScaler(oldRelayBattery)"/>
				<FieldRef field="standardScaler(oldDataMemory)"/>
				<FieldRef field="standardScaler(newRelayBattery)"/>
				<FieldRef field="standardScaler(newDataMemory)"/>
				<CategoricalPredictor name="oldFriendWithDestination" value="0" coefficient="1.0"/>
				<CategoricalPredictor name="oldCommonCommunity" value="1" coefficient="1.0"/>
				<CategoricalPredictor name="newFriendWithDestination" value="0" coefficient="1.0"/>
				<CategoricalPredictor name="newCommonCommunity" value="1" coefficient="1.0"/>
			</VectorFields>
			<VectorInstance id="3">
				<Array type="real">0.5 0.04563243123232861 -1.6118320407149906 -1.6068415771708582 -1.6132854152974492 -1.7307864431687736 -1.143125639715958 -1.7167255807162038 1.0 1.0 1.0 1.0</Array>
			</VectorInstance>
			<VectorInstance id="4">
				<Array type="real">0.7000000000000001 -0.9638192424566536 -1.0071762343349826 -1.0058868727018213 0.21094412057240852 -0.9737794286862064 -0.726596880899614 -0.7010935621271699 1.0 1.0 1.0 1.0</Array>
			</VectorInstance>
			<VectorInstance id="5">
				<Array type="real">0.4 -1.1210724725434997 -1.1403118143413657 -1.1382075290038745 -0.6938815656285331 -0.7180338156853387 -0.922970843186909 -0.7585821669529643 1.0 1.0 1.0 1.0</Array>
			</VectorInstance>
			<VectorInstance id="11">
				<Array type="real">1.0 -1.46309248467005 0.13850915720963652 0.1338990082768236 0.21094412057240852 0.5402346002789289 -1.273173910159811 0.31453845646186374 1.0 1.0 1.0 1.0</Array>
			</VectorInstance>
			<VectorInstance id="16">
				<Array type="real">1.0 0.9976414214088043 1.1177565233124798 1.1146781566976947 1.3008885881622678 1.1233345979209066 -0.726596880899614 1.13854179229825 1.0 1.0 1.0 1.0</Array>
			</VectorInstance>
			<VectorInstance id="19">
				<Array type="real">0.9 0.09517687105126417 0.6885666201554071 0.6840276064622645 1.0782350520417434 0.49931530219879006 1.5392166610370834 0.36244562715002576 1.0 1.0 1.0 1.0</Array>
			</VectorInstance>
			<VectorInstance id="21">
				<Array type="real">0.7000000000000001 0.8911454325202365 -0.44406279941215354 -0.44622025857868636 1.3008885881622678 -0.4622882026844711 -0.726596880899614 -0.15495181628212348 1.0 1.0 1.0 1.0</Array>
			</VectorInstance>
			<VectorInstance id="25">
				<Array type="real">0.5 -0.7425982569733991 -0.29681122264031745 -0.2998700096142297 1.3008885881622678 -0.11447416900329169 -0.922970843186909 -0.2699290259337123 1.0 1.0 1.0 1.0</Array>
			</VectorInstance>
			<VectorInstance id="27">
				<Array type="real">0.7000000000000001 1.435272279465524 0.7436808423199965 0.7391451175602428 -0.6938815656285331 0.4277065305585471 -1.273173910159811 0.6115629147284682 1.0 1.0 1.0 1.0</Array>
			</VectorInstance>
			<VectorInstance id="29">
				<Array type="real">0.7000000000000001 -1.4824772604357432 -0.6603219899084692 -0.6611557252394485 -0.6938815656285331 -0.6771145176051999 1.374500954778375 -0.5286277476497871 1.0 1.0 1.0 1.0</Array>
			</VectorInstance>
			<VectorInstance id="30">
				<Array type="real">0.9 -0.7734094258998422 1.3532162961425804 1.3590985945708574 -0.6938815656285331 0.8880486339601082 1.374500954778375 1.0044017143713961 1.0 1.0 1.0 1.0</Array>
			</VectorInstance>
			<VectorInstance id="31">
				<Array type="real">0.5 1.6056558385353368 -0.24109278634634318 -0.24449262621161616 -0.8803178715923315 -0.06332504640311816 0.22645893223745586 -0.4903020110992576 1.0 1.0 1.0 1.0</Array>
			</VectorInstance>
			<VectorInstance id="33">
				<Array type="real">0.8 -0.09634551536593608 -0.9392745798063946 -0.9384008446183648 0.21094412057240852 -0.8407917099257551 -0.922970843186909 -0.94062941556798 1.0 1.0 1.0 1.0</Array>
			</VectorInstance>
			<VectorInstance id="34">
				<Array type="real">0.9 1.0546130167822272 -0.5345217814377757 -0.5361255406187846 1.3008885881622678 -0.5850460969248875 -0.726596880899614 -0.6340235231637431 1.0 1.0 1.0 1.0</Array>
			</VectorInstance>
			<VectorInstance id="36">
				<Array type="real">0.1 -1.060221917386559 0.5115318802456479 0.5069773076718425 0.21094412057240852 0.7652907397196924 1.374500954778375 0.9085873729950722 1.0 1.0 1.0 1.0</Array>
			</VectorInstance>
			<VectorInstance id="38">
				<Array type="real">0.30000000000000004 0.7131843706175052 -1.0967023945468175 -1.0948650427361937 -1.2127986413600693 -0.9328601306060675 -0.922970843186909 -0.9597922838432448 1.0 1.0 1.0 1.0</Array>
			</VectorInstance>
			<VectorInstance id="40">
				<Array type="real">0.8 1.6546890976076074 1.2896501429985259 1.2931753121031129 1.3008885881622678 0.9903468791604554 -0.726596880899614 0.6307257830037325 1.0 1.0 1.0 1.0</Array>
			</VectorInstance>
			<VectorInstance id="42">
				<Array type="real">0.2 0.008336283029565253 0.30319107491863895 0.2986229315365732 1.3008885881622678 0.8471293358799701 0.22645893223745586 0.7744472950682185 1.0 1.0 1.0 1.0</Array>
			</VectorInstance>
			<VectorInstance id="45">
				<Array type="real">0.6000000000000001 1.6140351935198867 1.5720760807864238 1.5870733297060888 1.3008885881622678 1.1131047734008719 -0.726596880899614 1.071471753334823 1.0 1.0 1.0 1.0</Array>
			</VectorInstance>
			<VectorInstance id="46">
				<Array type="real">0.4 0.1686265281407159 -0.9525178228294028 -0.9515630256693507 -0.6938815656285331 -0.7998724118456164 0.22645893223745586 -0.8352336400540236 1.0 1.0 1.0 1.0</Array>
			</VectorInstance>
			<VectorInstance id="47">
				<Array type="real">0.2 -0.2936713067305698 -0.19547991970172945 -0.19915544441646485 1.3008885881622678 0.008283725237124779 -0.726596880899614 -0.3657433673100363 1.0 1.0 1.0 1.0</Array>
			</VectorInstance>
			<VectorInstance id="48">
				<Array type="real">0.30000000000000004 -1.081230443759306 -0.04481152969530184 -0.04935310794583983 0.21094412057240852 0.18219074207771477 -0.726596880899614 0.2857941540489665 1.0 1.0 1.0 1.0</Array>
			</VectorInstance>
			<VectorInstance id="49">
				<Array type="real">0.8 1.6349635346774707 1.0067118598962372 1.0022623142155422 1.3008885881622678 0.9187381075202125 -0.726596880899614 0.582818612315571 1.0 1.0 1.0 1.0</Array>
			</VectorInstance>
			<VectorInstance id="52">
				<Array type="real">0.30000000000000004 0.7269060655623004 -0.49342462039172236 -0.4952799355483427 1.3008885881622678 -0.5850460969248875 -0.726596880899614 -0.5382091817874196 1.0 1.0 1.0 1.0</Array>
			</VectorInstance>
			<VectorInstance id="53">
				<Array type="real">0.4 0.6431225388686969 0.7122475739281394 0.7077146158509783 -0.6938815656285331 0.9391977565602818 -1.273173910159811 0.9469131095456018 1.0 1.0 1.0 1.0</Array>
			</VectorInstance>
			<VectorInstance id="56">
				<Array type="real">0.5 -1.5037664350615614 -0.1401006913400414 -0.14410114550069514 -0.6938815656285331 0.069662672357333 0.22645893223745586 0.01751399819525978 1.0 1.0 1.0 1.0</Array>
			</VectorInstance>
			<VectorInstance id="58">
				<Array type="real">0.2 -0.3947648167475199 -1.2410141692388397 -1.238293484167454 0.5465400487306107 -1.0556180248464835 1.374500954778375 -1.0747694934948335 1.0 1.0 1.0 1.0</Array>
			</VectorInstance>
			<VectorInstance id="64">
				<Array type="real">0.6000000000000001 -1.5583324739800897 -0.19527498157597317 -0.19895176071823722 1.3008885881622678 0.008283725237124779 -0.726596880899614 -0.3657433673100363 1.0 1.0 1.0 1.0</Array>
			</VectorInstance>
			<VectorInstance id="68">
				<Array type="real">1.0 0.09788312206302072 0.8399982280094788 0.8355050657614168 -0.6938815656285331 0.8368995113599353 1.374500954778375 0.9373316754079694 1.0 1.0 1.0 1.0</Array>
			</VectorInstance>
			<VectorInstance id="71">
				<Array type="real">0.1 -1.2402176791240553 1.58746410729795 1.6033996316554038 1.3008885881622678 1.1131047734008719 -0.726596880899614 1.0044017143713961 1.0 1.0 1.0 1.0</Array>
			</VectorInstance>
			<VectorInstance id="73">
				<Array type="real">0.30000000000000004 -1.3049071014569322 0.8525277210083013 0.8480316132024164 -0.6938815656285331 0.8368995113599353 1.374500954778375 0.9085873729950722 1.0 1.0 1.0 1.0</Array>
			</VectorInstance>
			<VectorInstance id="77">
				<Array type="real">0.2 1.0411318774829215 -1.0855615340207918 -1.0837923754859915 -0.8803178715923315 -1.1476864455267959 -0.726596880899614 -0.7585821669529643 1.0 1.0 1.0 1.0</Array>
			</VectorInstance>
			<VectorInstance id="78">
				<Array type="real">0.6000000000000001 -0.02639393828797708 1.4225737180472302 1.4310551286516204 1.3008885881622678 0.9903468791604554 -0.726596880899614 0.975657411958499 1.0 1.0 1.0 1.0</Array>
			</VectorInstance>
			<VectorInstance id="82">
				<Array type="real">0.30000000000000004 0.5663652416537649 -1.2920861635436849 -1.2890528664809409 -0.8803178715923315 -1.1988355681269693 -0.726596880899614 -1.2472353079722163 1.0 1.0 1.0 1.0</Array>
			</VectorInstance>
			<VectorInstance id="86">
				<Array type="real">0.2 -1.0639906224992273 1.003164310271077 0.998715408436061 1.3008885881622678 0.9187381075202125 -0.726596880899614 0.927750241270337 1.0 1.0 1.0 1.0</Array>
			</VectorInstance>
			<VectorInstance id="93">
				<Array type="real">0.2 -0.20075668866026175 -0.10359697104369742 -0.10781384112507172 -1.6132854152974492 0.2128802156378189 -0.726596880899614 0.31453845646186374 1.0 1.0 1.0 1.0</Array>
			</VectorInstance>
			<VectorInstance id="97">
				<Array type="real">0.1 -1.0025988171399354 -0.8532818355558746 -0.8529344624844689 -1.2127986413600693 -0.6259653950050263 1.1399792671744877 -0.5573720500626844 1.0 1.0 1.0 1.0</Array>
			</VectorInstance>
			<VectorInstance id="98">
				<Array type="real">0.1 0.05407192512825087 -0.46384286196359426 -0.46587924724555363 1.3008885881622678 -0.5850460969248875 -0.726596880899614 -0.5382091817874196 1.0 1.0 1.0 1.0</Array>
			</VectorInstance>
			<VectorInstance id="101">
				<Array type="real">0.9 1.1513965714841576 -0.4735526890252875 -0.475529640396063 1.3008885881622678 -0.5850460969248875 -0.726596880899614 -0.5286277476497871 1.0 1.0 1.0 1.0</Array>
			</VectorInstance>
			<VectorInstance id="103">
				<Array type="real">0.7000000000000001 -0.4829084145156201 -0.701514553185478 -0.7020961485832033 -0.8803178715923315 -0.6259653950050263 0.22645893223745586 -0.5573720500626844 1.0 1.0 1.0 1.0</Array>
			</VectorInstance>
			<VectorInstance id="107">
				<Array type="real">0.9 0.9023212468836015 1.1982477389112327 1.1981919847589257 -0.6938815656285331 0.8880486339601082 1.374500954778375 1.0044017143713961 1.0 1.0 1.0 1.0</Array>
			</VectorInstance>
			<VectorInstance id="108">
				<Array type="real">0.7000000000000001 0.06872577319931779 1.0216723430764443 1.0172260424594726 -0.6938815656285331 0.8368995113599353 1.374500954778375 0.6977958219671593 1.0 1.0 1.0 1.0</Array>
			</VectorInstance>
			<VectorInstance id="110">
				<Array type="real">0.8 0.1178191711829606 0.30681635969494797 0.30224358486196445 -1.0893315642785288 0.8573591604000047 -1.6950079206288367 0.7073772561047917 1.0 1.0 1.0 1.0</Array>
			</VectorInstance>
			<VectorInstance id="112">
				<Array type="real">0.30000000000000004 0.99334148924568 -0.6493648670124318 -0.650265670960071 1.3008885881622678 -0.5850460969248875 -0.726596880899614 -0.6627678255766403 1.0 1.0 1.0 1.0</Array>
			</VectorInstance>
			<VectorInstance id="120">
				<Array type="real">0.6000000000000001 1.6324677698555174 -0.25938528077807027 -0.26267315217238285 -1.2127986413600693 -0.022405748322979337 0.22645893223745586 -0.45197627454872796 1.0 1.0 1.0 1.0</Array>
			</VectorInstance>
			<VectorInstance id="125">
				<Array type="real">0.1 -0.95712377699053 0.04082433954312548 0.036187021733966165 -0.6938815656285331 0.4583960041186512 0.22645893223745586 0.43909710025108495 1.0 1.0 1.0 1.0</Array>
			</VectorInstance>
			<VectorInstance id="127">
				<Array type="real">0.8 -1.4230199233922625 1.1285581759062193 1.125905342615518 -0.6938815656285331 1.0517258262806637 1.374500954778375 1.13854179229825 1.0 1.0 1.0 1.0</Array>
			</VectorInstance>
			<VectorInstance id="130">
				<Array type="real">0.7000000000000001 1.2334060002922764 -0.7226726479618315 -0.7231247345312565 -1.2127986413600693 -0.6361952195250611 0.22645893223745586 -0.9214665472927152 1.0 1.0 1.0 1.0</Array>
			</VectorInstance>
			<VectorInstance id="131">
				<Array type="real">1.0 -0.3228787713537497 0.4289100148222222 0.4243624973131334 -0.6938815656285331 0.9391977565602818 -1.273173910159811 0.9469131095456018 1.0 1.0 1.0 1.0</Array>
			</VectorInstance>
			<VectorInstance id="132">
				<Array type="real">0.4 0.6847186192345844 -1.1388843142929945 -1.136788766692082 0.21094412057240852 -1.0044689022463105 -0.726596880899614 -1.036443756944304 1.0 1.0 1.0 1.0</Array>
			</VectorInstance>
			<VectorInstance id="134">
				<Array type="real">0.7000000000000001 1.4633070353169426 0.10960581464608084 0.1049864584922008 1.0782350520417434 0.8471293358799701 0.0758002196533827 0.5540743099026738 1.0 1.0 1.0 1.0</Array>
			</VectorInstance>
			<VectorInstance id="136">
				<Array type="real">0.0 1.5458978069349942 0.032118002614445626 0.027488323104485932 -0.10108326475426446 -0.20654258968360403 1.5392166610370834 0.2762127199113341 1.0 1.0 1.0 1.0</Array>
			</VectorInstance>
			<VectorInstance id="139">
				<Array type="real">0.7000000000000001 -1.375309720370184 -0.124543060862372 -0.12863874337489722 0.21094412057240852 0.10035214591743713 -0.922970843186909 -0.18369611869502067 1.0 1.0 1.0 1.0</Array>
			</VectorInstance>
			<VectorInstance id="140">
				<Array type="real">0.9 -0.0022180959162852736 -0.33266126098381815 -0.33550060965246403 0.21094412057240852 -0.4929776762445752 -0.922970843186909 -0.15495181628212348 1.0 1.0 1.0 1.0</Array>
			</VectorInstance>
			<VectorInstance id="141">
				<Array type="real">0.30000000000000004 0.29095909702400713 1.3842078875392732 1.391231453860217 -0.6938815656285331 0.8880486339601082 1.374500954778375 1.0044017143713961 1.0 1.0 1.0 1.0</Array>
			</VectorInstance>
			<VectorInstance id="145">
				<Array type="real">0.9 -0.13795161888371912 0.714374690336851 0.7098392475307665 -0.10108326475426446 0.5095451267188248 1.1399792671744877 0.24746841749843693 1.0 1.0 1.0 1.0</Array>
			</VectorInstance>
			<VectorInstance id="147">
				<Array type="real">0.4 -1.0045834012152235 -0.4767892980458519 -0.47874643811289946 -0.6938815656285331 -0.6771145176051999 1.374500954778375 -0.5286277476497871 1.0 1.0 1.0 1.0</Array>
			</VectorInstance>
			<VectorInstance id="151">
				<Array type="real">0.8 -0.40168079155534214 0.2152266845617051 0.21063859747803557 0.5465400487306107 0.7448310906796229 0.0758002196533827 0.6977958219671593 1.0 1.0 1.0 1.0</Array>
			</VectorInstance>
			<VectorInstance id="154">
				<Array type="real">0.7000000000000001 -1.417016055406921 -0.8499816250480065 -0.8496544525854238 -0.8803178715923315 -0.6157355704849917 1.1399792671744877 -0.6531863914390079 1.0 1.0 1.0 1.0</Array>
			</VectorInstance>
			<VectorInstance id="157">
				<Array type="real">0.4 -1.3151908553016072 -1.185525404982351 -1.1831443669783714 -0.6938815656285331 -1.0453882003264487 0.22645893223745586 -1.0172808886690392 1.0 1.0 1.0 1.0</Array>
			</VectorInstance>
			<VectorInstance id="165">
				<Array type="real">0.1 -0.7992491114861695 -1.4418464656480547 -1.437896484854736 1.3008885881622678 -1.720556618648739 -0.726596880899614 -1.7071441465785715 1.0 1.0 1.0 1.0</Array>
			</VectorInstance>
			<VectorInstance id="166">
				<Array type="real">0.9 1.2329048426975067 -0.39223112067562566 -0.3947058418665969 0.21094412057240852 -0.3599899574841246 -0.726596880899614 -0.29867332834660953 1.0 1.0 1.0 1.0</Array>
			</VectorInstance>
			<VectorInstance id="170">
				<Array type="real">0.0 0.05199713268590418 0.012723082402788275 0.00811027746965674 1.3008885881622678 0.6425328454792759 0.0758002196533827 0.5924000464532034 1.0 1.0 1.0 1.0</Array>
			</VectorInstance>
			<VectorInstance id="172">
				<Array type="real">0.7000000000000001 0.2592257981231878 -1.1733103860040854 -1.1710041162064242 0.21094412057240852 -1.0351583758064147 -0.726596880899614 -0.7010935621271699 1.0 1.0 1.0 1.0</Array>
			</VectorInstance>
			<VectorInstance id="174">
				<Array type="real">0.9 0.6211517899139919 -1.4484892876553266 -1.4444986461076317 1.3008885881622678 -1.720556618648739 -0.726596880899614 -1.7167255807162038 1.0 1.0 1.0 1.0</Array>
			</VectorInstance>
			<VectorInstance id="175">
				<Array type="real">0.6000000000000001 1.2007906640246624 0.4651381286735836 0.4605936130823492 1.3008885881622678 0.8778188094400736 -1.143125639715958 0.8798430705821749 1.0 1.0 1.0 1.0</Array>
			</VectorInstance>
			<VectorInstance id="179">
				<Array type="real">0.6000000000000001 1.3214493665414226 1.0579675918310707 1.0535309057745983 -0.6938815656285331 0.8368995113599353 1.374500954778375 0.7265401243800566 1.0 1.0 1.0 1.0</Array>
			</VectorInstance>
			<VectorInstance id="181">
				<Array type="real">0.4 1.0750903161045184 -1.065184324171889 -1.0635398946639436 -1.2127986413600693 -0.7998724118456164 -0.922970843186909 -1.0556066252195688 1.0 1.0 1.0 1.0</Array>
			</VectorInstance>
			<VectorInstance id="182">
				<Array type="real">0.1 -0.7586653694617167 -0.3277710132933584 -0.3306402951982046 -1.2127986413600693 -0.1758531161234999 -0.726596880899614 -0.12620751386922627 1.0 1.0 1.0 1.0</Array>
			</VectorInstance>
			<VectorInstance id="183">
				<Array type="real">0.5 1.0307378689673974 0.9736673538260204 0.9692093664962577 1.3008885881622678 0.9187381075202125 -0.726596880899614 0.927750241270337 1.0 1.0 1.0 1.0</Array>
			</VectorInstance>
			<VectorInstance id="184">
				<Array type="real">0.1 0.8525763440267581 -1.7947605184482232 -1.7886503485664258 0.21094412057240852 -1.8944636354893287 -0.726596880899614 -1.8700285269183223 1.0 1.0 1.0 1.0</Array>
			</VectorInstance>
			<VectorInstance id="185">
				<Array type="real">0.0 -0.08397694592701913 -0.11371667435690322 -0.1178786252478373 -1.2127986413600693 -0.278151361323847 0.22645893223745586 0.1995612468102749 1.0 1.0 1.0 1.0</Array>
			</VectorInstance>
			<VectorInstance id="186">
				<Array type="real">0.8 0.7530865383130712 0.13265428696173778 0.12804485784672934 0.06790960872432988 0.6425328454792759 1.1399792671744877 1.0044017143713961 1.0 1.0 1.0 1.0</Array>
			</VectorInstance>
			<VectorInstance id="190">
				<Array type="real">0.8 -0.2799195423300884 1.0400249055795139 1.035582157815263 1.3008885881622678 0.9187381075202125 -0.726596880899614 0.8798430705821749 1.0 1.0 1.0 1.0</Array>
			</VectorInstance>
			<VectorInstance id="191">
				<Array type="real">0.4 -1.6919811813532815 1.3632405972248307 1.3694829513925664 1.3008885881622678 0.9903468791604554 -0.726596880899614 1.0139831485090287 1.0 1.0 1.0 1.0</Array>
			</VectorInstance>
			<VectorInstance id="193">
				<Array type="real">0.6000000000000001 -1.296136843548462 0.6341908819267325 0.6296440590354858 0.06790960872432988 0.7039117925994842 1.374500954778375 0.9948202802337638 1.0 1.0 1.0 1.0</Array>
			</VectorInstance>
			<VectorInstance id="195">
				<Array type="real">0.8 0.0093686676747909 -1.246505097642723 -1.2437508025647945 -1.6132854152974492 -0.9942390777262757 -0.726596880899614 -0.8448150741916559 1.0 1.0 1.0 1.0</Array>
			</VectorInstance>
			<VectorInstance id="200">
				<Array type="real">0.2 -0.3859444430795726 0.17540508667768645 0.17081141089873186 -1.6132854152974492 0.9289679320402471 -1.143125639715958 0.8223544657563806 1.0 1.0 1.0 1.0</Array>
			</VectorInstance>
			<VectorInstance id="202">
				<Array type="real">0.5 -0.8516100569877109 -1.6519009777163014 -1.6466652519622613 1.4572687286422183 -1.9353829335694674 -0.10220051894605618 -1.793377053817263 1.0 1.0 1.0 1.0</Array>
			</VectorInstance>
			<VectorInstance id="204">
				<Array type="real">0.5 1.2838124311742158 0.2936720523188566 0.28910247453838145 0.06790960872432988 0.8164398623198659 -1.143125639715958 0.8127730316187481 1.0 1.0 1.0 1.0</Array>
			</VectorInstance>
			<VectorInstance id="207">
				<Array type="real">0.9 -0.8025667747635451 -0.20862422707782077 -0.21221929540623735 0.21094412057240852 -0.1656232916034652 -0.922970843186909 -0.2795104600713447 1.0 1.0 1.0 1.0</Array>
			</VectorInstance>
			<VectorInstance id="209">
				<Array type="real">0.4 -1.3605857102358494 -0.9046435699695475 -0.9039818114057949 -0.6938815656285331 -0.7180338156853387 -0.922970843186909 -0.7394192986776995 1.0 1.0 1.0 1.0</Array>
			</VectorInstance>
			<VectorInstance id="212">
				<Array type="real">0.4 -0.0685914077675884 -1.742971240703231 -1.7371780733091422 -1.6132854152974492 -1.8535443374091898 -0.726596880899614 -1.8029584879548954 1.0 1.0 1.0 1.0</Array>
			</VectorInstance>
			<VectorInstance id="214">
				<Array type="real">0.4 -1.414500244281177 0.06928600511151681 0.06464655087942751 -1.6132854152974492 0.4277065305585471 -1.143125639715958 0.9660759778208666 1.0 1.0 1.0 1.0</Array>
			</VectorInstance>
			<VectorInstance id="216">
				<Array type="real">0.6000000000000001 0.9040953447690864 -0.5153777337593717 -0.5170986737740031 -0.6938815656285331 -0.6771145176051999 1.374500954778375 -0.6819306938519051 1.0 1.0 1.0 1.0</Array>
			</VectorInstance>
			<VectorInstance id="217">
				<Array type="real">0.0 -1.4323915704144563 0.37438940653913366 0.36983496658243514 1.3008885881622678 0.7141416171195188 0.5799432055887269 0.6019814805908358 1.0 1.0 1.0 1.0</Array>
			</VectorInstance>
			<VectorInstance id="218">
				<Array type="real">0.9 0.614245838258065 -1.1409336955505571 -1.1388256036743583 -0.6938815656285331 -0.7180338156853387 -0.922970843186909 -0.8639779424669207 1.0 1.0 1.0 1.0</Array>
			</VectorInstance>
			<VectorInstance id="222">
				<Array type="real">0.2 0.5054144549778703 0.4345952811039778 0.4300445701361043 1.3008885881622678 0.9801170546404206 0.22645893223745586 0.7361215585176889 1.0 1.0 1.0 1.0</Array>
			</VectorInstance>
			<VectorInstance id="227">
				<Array type="real">0.4 1.482952413031916 1.4287183284039566 1.4374360472667862 -0.6938815656285331 0.8880486339601082 1.374500954778375 0.9852388460961314 1.0 1.0 1.0 1.0</Array>
			</VectorInstance>
			<VectorInstance id="228">
				<Array type="real">0.0 -1.0172827346666884 1.127317946903798 1.1245989575165407 -0.6938815656285331 1.0517258262806637 1.374500954778375 1.13854179229825 1.0 1.0 1.0 1.0</Array>
			</VectorInstance>
			<VectorInstance id="229">
				<Array type="real">0.5 1.1952077684189275 -0.2587916668965694 -0.2620831718051028 -1.2127986413600693 -0.022405748322979337 0.22645893223745586 -0.13578894800685867 1.0 1.0 1.0 1.0</Array>
			</VectorInstance>
			<VectorInstance id="231">
				<Array type="real">0.4 -0.926924020329706 0.36115676376400946 0.3565990379855393 -0.6938815656285331 0.9698872301203859 0.22645893223745586 0.784028729205851 1.0 1.0 1.0 1.0</Array>
			</VectorInstance>
			<VectorInstance id="232">
				<Array type="real">0.4 1.1570295828493695 0.8413762602343915 0.836885198406304 -0.6938815656285331 0.8368995113599353 1.374500954778375 0.9373316754079694 1.0 1.0 1.0 1.0</Array>
			</VectorInstance>
			<VectorInstance id="233">
				<Array type="real">0.7000000000000001 -1.690297291834855 -0.7834297354166407 -0.7835099274799494 -1.6132854152974492 -0.431598729124367 -1.273173910159811 -1.0172808886690392 1.0 1.0 1.0 1.0</Array>
			</VectorInstance>
			<VectorInstance id="237">
				<Array type="real">1.0 -1.5305482969260558 -1.684606275854232 -1.6791703607690718 -1.6132854152974492 -1.8740039864492593 -1.143125639715958 -1.8508656586430574 1.0 1.0 1.0 1.0</Array>
			</VectorInstance>
			<VectorInstance id="238">
				<Array type="real">0.9 0.7357665318378293 -0.8595077144797113 -0.8591222327651085 -0.8803178715923315 -0.6157355704849917 1.1399792671744877 -0.6531863914390079 1.0 1.0 1.0 1.0</Array>
			</VectorInstance>
			<VectorInstance id="239">
				<Array type="real">0.8 1.1771560718553218 -0.5124803326710935 -0.5142190076956124 1.3008885881622678 -0.5850460969248875 -0.726596880899614 -0.5286277476497871 1.0 1.0 1.0 1.0</Array>
			</VectorInstance>
			<VectorInstance id="240">
				<Array type="real">0.2 0.5038207738265025 0.5926520438855148 0.5880890728091477 -0.10108326475426446 0.24356968919792243 1.5392166610370834 0.7361215585176889 1.0 1.0 1.0 1.0</Array>
			</VectorInstance>
			<VectorInstance id="242">
				<Array type="real">0.9 -0.34603225223211126 -0.9556519627870891 -0.9546779815370733 -0.8803178715923315 -0.7998724118456164 0.22645893223745586 -0.8448150741916559 1.0 1.0 1.0 1.0</Array>
			</VectorInstance>
			<VectorInstance id="245">
				<Array type="real">0.9 0.7760996950648972 -0.6717031227198644 -0.6724671940668833 1.3008885881622678 -0.7896425873255817 -0.726596880899614 -0.6340235231637431 1.0 1.0 1.0 1.0</Array>
			</VectorInstance>
			<VectorInstance id="252">
				<Array type="real">0.9 0.20764665846948713 1.1196080332762088 1.1165850575276535 -0.6938815656285331 1.0517258262806637 1.374500954778375 1.1289603581606173 1.0 1.0 1.0 1.0</Array>
			</VectorInstance>
			<VectorInstance id="253">
				<Array type="real">0.0 -1.38193502377304 1.4359794982044587 1.444996926616512 -0.6938815656285331 0.8880486339601082 1.374500954778375 0.7265401243800566 1.0 1.0 1.0 1.0</Array>
			</VectorInstance>
			<VectorInstance id="257">
				<Array type="real">0.2 0.5635286896673682 0.1595047148517695 0.15491003528537436 -0.6938815656285331 0.9494275810803166 0.22645893223745586 0.6882143878295269 1.0 1.0 1.0 1.0</Array>
			</VectorInstance>
			<VectorInstance id="261">
				<Array type="real">0.9 -0.3177469175833077 0.9777908502528749 0.9733392290672179 1.3008885881622678 0.9187381075202125 -0.726596880899614 0.927750241270337 1.0 1.0 1.0 1.0</Array>
			</VectorInstance>
			<VectorInstance id="262">
				<Array type="real">0.6000000000000001 1.5972865067026825 -0.27270625895222733 -0.2759125925571792 -0.6938815656285331 -0.08378469544318756 1.374500954778375 -0.12620751386922627 1.0 1.0 1.0 1.0</Array>
			</VectorInstance>
			<VectorInstance id="263">
				<Array type="real">0.4 -0.4816454973768004 1.5108773163364502 1.5226776749750517 -0.6938815656285331 0.8880486339601082 1.374500954778375 1.0139831485090287 1.0 1.0 1.0 1.0</Array>
			</VectorInstance>
			<VectorInstance id="264">
				<Array type="real">0.1 -0.7724071107103027 -0.46186768244121923 -0.4639161578091873 -0.6938815656285331 -0.5236671498046793 0.22645893223745586 -0.9023036790174503 1.0 1.0 1.0 1.0</Array>
			</VectorInstance>
			<VectorInstance id="267">
				<Array type="real">0.7000000000000001 0.9651864555715165 0.6606066996535225 0.6560667511986708 -0.6938815656285331 0.9698872301203859 0.22645893223745586 0.4965857050768794 1.0 1.0 1.0 1.0</Array>
			</VectorInstance>
			<VectorInstance id="268">
				<Array type="real">0.5 0.3534835185474787 1.4983336896737824 1.5096489418642838 1.3008885881622678 0.9903468791604554 -0.726596880899614 0.975657411958499 1.0 1.0 1.0 1.0</Array>
			</VectorInstance>
			<VectorInstance id="270">
				<Array type="real">0.7000000000000001 0.2995890308059419 -0.223641244913409 -0.22714439398326236 0.21094412057240852 -0.11447416900329169 -0.726596880899614 -0.14537038214449108 1.0 1.0 1.0 1.0</Array>
			</VectorInstance>
			<VectorInstance id="272">
				<Array type="real">1.0 -0.10576727814760702 1.5283182575215004 1.5407879651778087 1.3008885881622678 1.1131047734008719 -0.726596880899614 0.975657411958499 1.0 1.0 1.0 1.0</Array>
			</VectorInstance>
			<VectorInstance id="281">
				<Array type="real">0.7000000000000001 0.04626388980173847 0.08328186573428502 0.0786515610265277 -1.0893315642785288 0.8164398623198659 0.0758002196533827 0.46784140266398216 1.0 1.0 1.0 1.0</Array>
			</VectorInstance>
			<VectorInstance id="285">
				<Array type="real">0.4 0.5422395150415501 0.670913674012678 0.6663738486865692 0.21094412057240852 0.8164398623198659 -0.726596880899614 0.8606802023069101 1.0 1.0 1.0 1.0</Array>
			</VectorInstance>
			<VectorInstance id="289">
				<Array type="real">0.9 0.7437048681389817 -1.0488846763423434 -1.0473400170790457 -0.6938815656285331 -0.9430899551261023 0.22645893223745586 -0.7010935621271699 1.0 1.0 1.0 1.0</Array>
			</VectorInstance>
			<VectorInstance id="292">
				<Array type="real">0.5 0.8327605727295629 -1.041609372877996 -1.0401092457919645 1.3008885881622678 -0.7282636402053735 -0.726596880899614 -0.7298378645400672 1.0 1.0 1.0 1.0</Array>
			</VectorInstance>
			<VectorInstance id="294">
				<Array type="real">0.5 1.3021648222946833 -0.9809370874062584 -0.979808335752883 1.0782350520417434 -0.9021706570459634 1.5392166610370834 -1.2951424786603782 1.0 1.0 1.0 1.0</Array>
			</VectorInstance>
			<VectorInstance id="297">
				<Array type="real">0.8 -1.7296782556318606 0.4326766362369838 0.42812713394244417 0.21094412057240852 0.6936819680794495 1.374500954778375 0.6594700854166297 1.0 1.0 1.0 1.0</Array>
			</VectorInstance>
			<VectorInstance id="299">
				<Array type="real">0.5 -0.13074497267093038 -0.1184373180812199 -0.12257037388287387 0.21094412057240852 0.18219074207771477 -0.726596880899614 0.2570498516360693 1.0 1.0 1.0 1.0</Array>
			</VectorInstance>
			<VectorInstance id="301">
				<Array type="real">0.9 0.3375968227932783 -0.36447967171545864 -0.3671242596962547 -0.8803178715923315 -0.31907065940398577 -0.726596880899614 -0.30825476248424194 1.0 1.0 1.0 1.0</Array>
			</VectorInstance>
			<VectorInstance id="302">
				<Array type="real">0.9 0.1855355853882466 0.5969663447742803 0.5924085719267337 -1.2127986413600693 0.8266696868399006 1.374500954778375 0.8223544657563806 1.0 1.0 1.0 1.0</Array>
			</VectorInstance>
			<VectorInstance id="304">
				<Array type="real">0.1 1.5956427097918378 0.01601622607873374 0.011400822732403197 -1.6132854152974492 0.3254082853582001 -0.726596880899614 0.2953755881865989 1.0 1.0 1.0 1.0</Array>
			</VectorInstance>
			<VectorInstance id="309">
				<Array type="real">0.30000000000000004 -0.29171679211096785 -0.4408191235596665 -0.4429964372860489 -0.8803178715923315 -0.278151361323847 -0.726596880899614 -0.5286277476497871 1.0 1.0 1.0 1.0</Array>
			</VectorInstance>
			<VectorInstance id="313">
				<Array type="real">0.1 -1.0007746034949736 0.9629964376228496 0.9585370430667096 -0.6938815656285331 0.8368995113599353 1.374500954778375 0.9373316754079694 1.0 1.0 1.0 1.0</Array>
			</VectorInstance>
			<VectorInstance id="316">
				<Array type="real">0.9 -1.518079495968185 1.1539528364201894 1.152240240081191 1.3008885881622678 0.7755205642397272 -0.726596880899614 0.9373316754079694 1.0 1.0 1.0 1.0</Array>
			</VectorInstance>
			<VectorInstance id="320">
				<Array type="real">0.9 -0.6496435462955095 1.273290427097638 1.2761431407858022 1.3008885881622678 0.9903468791604554 -0.726596880899614 1.0139831485090287 1.0 1.0 1.0 1.0</Array>
			</VectorInstance>
			<VectorInstance id="322">
				<Array type="real">0.30000000000000004 0.19544848261279188 -1.7217566112714964 -1.7160932987546813 1.0782350520417434 -1.7307864431687736 0.5799432055887269 -1.8508656586430574 1.0 1.0 1.0 1.0</Array>
			</VectorInstance>
			<VectorInstance id="323">
				<Array type="real">0.7000000000000001 -0.44722599376801525 1.1408049956281368 1.1385793851483377 0.21094412057240852 1.041496001760629 -0.726596880899614 1.13854179229825 1.0 1.0 1.0 1.0</Array>
			</VectorInstance>
			<VectorInstance id="324">
				<Array type="real">0.30000000000000004 -0.7354517496719828 0.9528307999021467 0.9483633935190293 1.3008885881622678 0.9187381075202125 -0.726596880899614 0.9373316754079694 1.0 1.0 1.0 1.0</Array>
			</VectorInstance>
			<VectorInstance id="325">
				<Array type="real">0.8 1.6525842357095744 -0.02775219743407362 -0.032338495568031304 -0.6938815656285331 0.24356968919792243 1.374500954778375 0.36244562715002576 1.0 1.0 1.0 1.0</Array>
			</VectorInstance>
			<VectorInstance id="326">
				<Array type="real">0.6000000000000001 1.7236483826479223 -0.6125431392795695 -0.6136693292492057 -0.6938815656285331 -0.6771145176051999 1.374500954778375 -0.5286277476497871 1.0 1.0 1.0 1.0</Array>
			</VectorInstance>
			<VectorInstance id="327">
				<Array type="real">1.0 -0.03822125752454272 1.6168126602726314 1.6350478642144979 1.3008885881622678 1.2358626676412883 -0.726596880899614 1.1768675288487795 1.0 1.0 1.0 1.0</Array>
			</VectorInstance>
			<VectorInstance id="328">
				<Array type="real">0.5 0.49442908050051776 0.24647268190761254 0.24188648621647524 0.5465400487306107 0.5095451267188248 0.22645893223745586 0.4965857050768794 1.0 1.0 1.0 1.0</Array>
			</VectorInstance>
			<VectorInstance id="329">
				<Array type="real">0.30000000000000004 -1.4266382812265 1.2548035947880385 1.2569687788492006 1.3008885881622678 0.9903468791604554 -0.726596880899614 0.7457029926553214 1.0 1.0 1.0 1.0</Array>
			</VectorInstance>
			<VectorInstance id="331">
				<Array type="real">0.1 0.4348013498748152 -0.866147003071022 -0.8657208822301037 1.0782350520417434 -0.4622882026844711 -0.922970843186909 -0.7777450352282291 1.0 1.0 1.0 1.0</Array>
			</VectorInstance>
			<VectorInstance id="332">
				<Array type="real">0.4 1.4709747465169194 -1.1463645558830982 -1.1442232216773907 -0.6938815656285331 -0.6975741666452693 0.5799432055887269 -0.6915121279895375 1.0 1.0 1.0 1.0</Array>
			</VectorInstance>
			<VectorInstance id="334">
				<Array type="real">0.0 1.2891848405901474 -1.5454214877220775 -1.540837523581403 1.3008885881622678 -1.8433145128891553 -0.726596880899614 -1.8221213562301601 1.0 1.0 1.0 1.0</Array>
			</VectorInstance>
			<VectorInstance id="335">
				<Array type="real">0.7000000000000001 0.7200101370582689 -0.5892932622541176 -0.5905617648640704 1.3008885881622678 -0.5850460969248875 -0.726596880899614 -0.7681636010905967 1.0 1.0 1.0 1.0</Array>
			</VectorInstance>
			<VectorInstance id="337">
				<Array type="real">0.4 0.9179373175366263 -1.190104712068215 -1.187695644097389 0.21094412057240852 -1.02492855128638 -0.922970843186909 -1.189746703146422 1.0 1.0 1.0 1.0</Array>
			</VectorInstance>
			<VectorInstance id="340">
				<Array type="real">0.6000000000000001 0.8023503298789356 -1.3852305416999064 -1.3816271073254014 -0.6938815656285331 -1.4341215320877676 -0.922970843186909 -1.38137538589907 1.0 1.0 1.0 1.0</Array>
			</VectorInstance>
			<VectorInstance id="341">
				<Array type="real">0.9 -1.0370082975968251 -0.5561074195454483 -0.5575790529027954 1.3008885881622678 -0.5850460969248875 -0.726596880899614 -0.6340235231637431 1.0 1.0 1.0 1.0</Array>
			</VectorInstance>
			<VectorInstance id="342">
				<Array type="real">0.2 -0.9802070958056238 -0.9239218874544816 -0.9231421261907946 -0.6938815656285331 -0.6566548685651304 0.22645893223745586 -0.8352336400540236 1.0 1.0 1.0 1.0</Array>
			</VectorInstance>
			<VectorInstance id="343">
				<Array type="real">0.30000000000000004 -1.1434241012702298 -0.14383904542711254 -0.1478236406752002 -0.10108326475426446 -0.7896425873255817 1.5392166610370834 -0.9310479814303476 1.0 1.0 1.0 1.0</Array>
			</VectorInstance>
			<VectorInstance id="344">
				<Array type="real">0.6000000000000001 1.1892239467373769 -1.5542726947051713 -1.5496345522720965 1.3008885881622678 -1.8433145128891553 -0.726596880899614 -1.8604470927806898 1.0 1.0 1.0 1.0</Array>
			</VectorInstance>
			<VectorInstance id="346">
				<Array type="real">0.1 0.048298589636503575 -1.5732047374258964 -1.5684507118428495 1.3008885881622678 -1.9251531090494327 -0.726596880899614 -1.889191395193587 1.0 1.0 1.0 1.0</Array>
			</VectorInstance>
			<VectorInstance id="347">
				<Array type="real">0.30000000000000004 -0.011329140989198976 1.1537796990380849 1.1520576271103662 1.3008885881622678 0.7755205642397272 -0.726596880899614 0.9373316754079694 1.0 1.0 1.0 1.0</Array>
			</VectorInstance>
			<VectorInstance id="348">
				<Array type="real">0.6000000000000001 -0.39851347555639743 0.08107348075846323 0.07644615822502848 -1.6132854152974492 0.6425328454792759 -0.726596880899614 0.36244562715002576 1.0 1.0 1.0 1.0</Array>
			</VectorInstance>
			<VectorInstance id="349">
				<Array type="real">0.30000000000000004 0.6464201558422816 -1.142940675816584 -1.1408202992018288 -0.6938815656285331 -0.8203320608856858 0.22645893223745586 -1.2663981762474812 1.0 1.0 1.0 1.0</Array>
			</VectorInstance>
			<VectorInstance id="351">
				<Array type="real">0.2 0.9818750034773486 -0.18219427568718552 -0.1859511219106733 0.21094412057240852 -0.012175923802944633 -0.726596880899614 -0.16453325041975586 1.0 1.0 1.0 1.0</Array>
			</VectorInstance>
			<VectorInstance id="352">
				<Array type="real">0.1 0.6083121323359914 -0.8532606350601066 -0.852913391757066 -1.2127986413600693 -0.6259653950050263 1.1399792671744877 -0.5573720500626844 1.0 1.0 1.0 1.0</Array>
			</VectorInstance>
			<VectorInstance id="356">
				<Array type="real">0.6000000000000001 -0.6346689573637899 -0.14555628558431158 -0.14953036959483176 0.06790960872432988 -0.09401451996322227 1.1399792671744877 0.04625830060815646 1.0 1.0 1.0 1.0</Array>
			</VectorInstance>
			<VectorInstance id="358">
				<Array type="real">0.7000000000000001 0.9704686566203895 1.5520345454538458 1.565900760454116 1.3008885881622678 1.1131047734008719 -0.726596880899614 1.1289603581606173 1.0 1.0 1.0 1.0</Array>
			</VectorInstance>
			<VectorInstance id="362">
				<Array type="real">0.2 0.3343092289715888 -0.9788029041656242 -0.9776872158609952 -1.6132854152974492 -0.8305618854057205 1.374500954778375 -0.9502108497056123 1.0 1.0 1.0 1.0</Array>
			</VectorInstance>
			<VectorInstance id="367">
				<Array type="real">0.6000000000000001 1.00794522155727 0.7459704958629286 0.741431291483453 -1.2127986413600693 0.898278458480143 -0.726596880899614 0.4103527978381878 1.0 1.0 1.0 1.0</Array>
			</VectorInstance>
			<VectorInstance id="368">
				<Array type="real">0.30000000000000004 1.2081175880601958 -0.40596550851725655 -0.408356161435749 -0.8803178715923315 -0.41113908008429756 -0.726596880899614 -0.4903020110992576 1.0 1.0 1.0 1.0</Array>
			</VectorInstance>
			<VectorInstance id="371">
				<Array type="real">0.7000000000000001 -0.449531318703956 -1.0877381182529617 -1.085955636832685 -0.6938815656285331 -1.0658478493665182 1.374500954778375 -0.94062941556798 1.0 1.0 1.0 1.0</Array>
			</VectorInstance>
			<VectorInstance id="374">
				<Array type="real">0.7000000000000001 -0.5590342531611422 1.4125246830532505 1.4206286303751057 -0.6938815656285331 0.8880486339601082 1.374500954778375 0.975657411958499 1.0 1.0 1.0 1.0</Array>
			</VectorInstance>
			<VectorInstance id="376">
				<Array type="real">1.0 1.68676318367287 -1.1197508668624745 -1.117772435211002 -0.6938815656285331 -0.7180338156853387 -0.922970843186909 -0.8735593766045532 1.0 1.0 1.0 1.0</Array>
			</VectorInstance>
			<VectorInstance id="381">
				<Array type="real">0.8 -1.7117368137391042 -0.20200967239823933 -0.20564522845654537 -0.8803178715923315 -0.1656232916034652 -1.6950079206288367 -0.16453325041975586 1.0 1.0 1.0 1.0</Array>
			</VectorInstance>
			<VectorInstance id="387">
				<Array type="real">0.30000000000000004 -1.6778385140288796 1.1726940746790036 1.171720127565134 1.3008885881622678 0.9903468791604554 -0.726596880899614 1.0044017143713961 1.0 1.0 1.0 1.0</Array>
			</VectorInstance>
			<VectorInstance id="389">
				<Array type="real">1.0 -1.5674936348124804 0.3072015020347313 0.3026369051068178 -1.0893315642785288 0.8573591604000047 -1.6950079206288367 0.7073772561047917 1.0 1.0 1.0 1.0</Array>
			</VectorInstance>
			<VectorInstance id="396">
				<Array type="real">0.9 -1.695779955921636 0.018323546701472352 0.013708067383016243 -0.6938815656285331 0.47885565315872064 -1.6950079206288367 0.24746841749843693 1.0 1.0 1.0 1.0</Array>
			</VectorInstance>
			<VectorInstance id="397">
				<Array type="real">1.0 -1.5677642599136559 -0.13106574672695925 -0.1351215038391768 1.3008885881622678 0.10035214591743713 -0.726596880899614 -0.02081173835526983 1.0 1.0 1.0 1.0</Array>
			</VectorInstance>
			<VectorInstance id="399">
				<Array type="real">0.7000000000000001 0.09229020330539053 -0.25743130175146317 -0.26073113346341936 -0.8803178715923315 -0.06332504640311816 0.22645893223745586 -0.44239484041109556 1.0 1.0 1.0 1.0</Array>
			</VectorInstance>
			<VectorInstance id="401">
				<Array type="real">0.5 -1.1918259017730903 1.382925257545316 1.3899461394886428 1.3008885881622678 0.9903468791604554 -0.726596880899614 1.0044017143713961 1.0 1.0 1.0 1.0</Array>
			</VectorInstance>
			<VectorInstance id="413">
				<Array type="real">0.9 1.7203307193705466 1.1015522777138897 1.0978496690786115 0.21094412057240852 1.041496001760629 -0.726596880899614 1.13854179229825 1.0 1.0 1.0 1.0</Array>
			</VectorInstance>
			<VectorInstance id="414">
				<Array type="real">0.4 -0.11385596172719047 -0.8474340321398984 -0.8471224535091804 0.5465400487306107 -0.5236671498046793 -0.922970843186909 -0.4711391428239928 1.0 1.0 1.0 1.0</Array>
			</VectorInstance>
			<VectorInstance id="416">
				<Array type="real">0.8 -1.0498178857191394 0.3648562502755061 0.36029695064474104 -1.0893315642785288 0.6118433719191718 1.1399792671744877 0.47742283680161457 1.0 1.0 1.0 1.0</Array>
			</VectorInstance>
			<VectorInstance id="418">
				<Array type="real">0.7000000000000001 -1.1984812746316322 1.4059101283736692 1.4137806439691767 1.3008885881622678 0.9903468791604554 -0.726596880899614 0.9469131095456018 1.0 1.0 1.0 1.0</Array>
			</VectorInstance>
			<VectorInstance id="419">
				<Array type="real">0.4 -0.09941259984592683 0.03609309557092486 0.031460155219924825 -1.2127986413600693 0.5402346002789289 0.22645893223745586 -0.08788177731869665 1.0 1.0 1.0 1.0</Array>
			</VectorInstance>
			<VectorInstance id="421">
				<Array type="real">0.9 -1.5803032229347946 0.8055898233781945 0.8010860325488468 1.3008885881622678 0.9187381075202125 -0.726596880899614 0.927750241270337 1.0 1.0 1.0 1.0</Array>
			</VectorInstance>
			<VectorInstance id="423">
				<Array type="real">0.9 -1.115669993671882 -0.6263835296000398 -0.627425002455372 1.3008885881622678 -0.5850460969248875 -0.726596880899614 -0.5765349183379492 1.0 1.0 1.0 1.0</Array>
			</VectorInstance>
			<VectorInstance id="424">
				<Array type="real">0.1 -0.43223135853250494 0.5084224741996908 0.5038763989557218 -1.0893315642785288 0.8266696868399006 0.0758002196533827 0.831935899894013 1.0 1.0 1.0 1.0</Array>
			</VectorInstance>
			<VectorInstance id="426">
				<Array type="real">0.9 1.3600284781867964 -0.03360353426601106 -0.038178598846523686 -1.6132854152974492 0.3867872324784083 1.374500954778375 0.4103527978381878 1.0 1.0 1.0 1.0</Array>
			</VectorInstance>
			<VectorInstance id="427">
				<Array type="real">0.9 1.0946755549081195 -1.1737025951757913 -1.171393924663377 0.21094412057240852 -1.0351583758064147 -0.726596880899614 -0.7969079035034939 1.0 1.0 1.0 1.0</Array>
			</VectorInstance>
			<VectorInstance id="428">
				<Array type="real">0.2 0.5076897104581248 -1.5173520313253923 -1.5129398805000176 -0.6938815656285331 -1.955842582609537 1.374500954778375 -1.8221213562301601 1.0 1.0 1.0 1.0</Array>
			</VectorInstance>
			<VectorInstance id="433">
				<Array type="real">0.5 1.6460290943699865 1.4822319131380706 1.4929433668217174 1.3008885881622678 0.9903468791604554 -0.726596880899614 1.0139831485090287 1.0 1.0 1.0 1.0</Array>
			</VectorInstance>
			<VectorInstance id="435">
				<Array type="real">1.0 1.1237527185566594 0.8280340815644666 0.8235404043844934 1.3008885881622678 0.9187381075202125 -0.726596880899614 0.9373316754079694 1.0 1.0 1.0 1.0</Array>
			</VectorInstance>
			<VectorInstance id="439">
				<Array type="real">0.6000000000000001 0.3814581354875251 -0.8958488976418348 -0.895240971321509 -0.6938815656285331 -0.8203320608856858 1.374500954778375 -0.6627678255766403 1.0 1.0 1.0 1.0</Array>
			</VectorInstance>
			<VectorInstance id="442">
				<Array type="real">0.6000000000000001 0.5157884171896037 0.8406130423867475 0.8361161168560997 -0.6938815656285331 0.8368995113599353 1.374500954778375 0.9373316754079694 1.0 1.0 1.0 1.0</Array>
			</VectorInstance>
			<VectorInstance id="447">
				<Array type="real">0.1 1.1130680386361687 0.27494494772388783 0.27036708608933946 1.3008885881622678 0.46862582863868596 -0.726596880899614 0.5061671392145118 1.0 1.0 1.0 1.0</Array>
			</VectorInstance>
			<VectorInstance id="451">
				<Array type="real">0.30000000000000004 -0.5220287763633452 0.4170165366964363 0.4124610481184186 -0.6938815656285331 0.4277065305585471 1.374500954778375 0.6498886512789973 1.0 1.0 1.0 1.0</Array>
			</VectorInstance>
			<VectorInstance id="454">
				<Array type="real">0.9 0.5190860341631885 -0.5087808461595968 -0.5105421657638135 1.3008885881622678 -0.5850460969248875 -0.726596880899614 -0.5382091817874196 1.0 1.0 1.0 1.0</Array>
			</VectorInstance>
			<VectorInstance id="458">
				<Array type="real">0.2 1.0782576321034631 -0.2690915744238022 -0.27232003353499173 -1.2127986413600693 -0.10424434448325698 -0.922970843186909 -0.11662607973159386 1.0 1.0 1.0 1.0</Array>
			</VectorInstance>
			<VectorInstance id="459">
				<Array type="real">0.9 -1.0243891493605233 -0.07448515693842417 -0.07888022061304603 -0.10108326475426446 0.069662672357333 1.1399792671744877 -0.2507661576584475 1.0 1.0 1.0 1.0</Array>
			</VectorInstance>
			<VectorInstance id="460">
				<Array type="real">0.6000000000000001 -1.3803313194697768 -1.1029600742143062 -1.1010844191079376 -0.6938815656285331 -0.6566548685651304 0.22645893223745586 -0.9885365862561419 1.0 1.0 1.0 1.0</Array>
			</VectorInstance>
			<VectorInstance id="463">
				<Array type="real">0.7000000000000001 1.4319045004286712 -0.5223420966191233 -0.5240204077258421 -0.6938815656285331 -0.6771145176051999 1.374500954778375 -0.5286277476497871 1.0 1.0 1.0 1.0</Array>
			</VectorInstance>
			<VectorInstance id="464">
				<Array type="real">0.6000000000000001 0.19758341396651094 0.31452273990657575 0.30995547109141075 -1.6132854152974492 0.5913837228791025 0.22645893223745586 0.9852388460961314 1.0 1.0 1.0 1.0</Array>
			</VectorInstance>
			<VectorInstance id="465">
				<Array type="real">0.9 -1.2698060235192603 -0.3181777889583885 -0.3211057910484109 -0.8803178715923315 -0.07355487092315287 0.22645893223745586 -0.42323197213583075 1.0 1.0 1.0 1.0</Array>
			</VectorInstance>
			<VectorInstance id="468">
				<Array type="real">0.6000000000000001 0.08009202744869529 0.06730375875721915 0.06266590250355879 1.3008885881622678 0.7959802132797965 -1.6950079206288367 0.8702616364445426 1.0 1.0 1.0 1.0</Array>
			</VectorInstance>
			<VectorInstance id="469">
				<Array type="real">0.5 1.0144402239854857 0.47740614889126887 0.47286731179451447 -1.0893315642785288 0.8266696868399006 0.0758002196533827 0.8223544657563806 1.0 1.0 1.0 1.0</Array>
			</VectorInstance>
			<VectorInstance id="472">
				<Array type="real">0.9 1.5968154185635988 1.5902696395712341 1.6063003684611974 -0.6938815656285331 1.0926451243608024 1.374500954778375 1.119378924022985 1.0 1.0 1.0 1.0</Array>
			</VectorInstance>
			<VectorInstance id="482">
				<Array type="real">0.6000000000000001 -0.812700181329789 -0.8196295819403117 -0.819488194520331 -1.2127986413600693 -0.6975741666452693 0.5799432055887269 -0.7298378645400672 1.0 1.0 1.0 1.0</Array>
			</VectorInstance>
			<VectorInstance id="485">
				<Array type="real">0.9 -1.5038967360362014 -1.0992252535431963 -1.097372459297134 -0.6938815656285331 -0.8203320608856858 -0.922970843186909 -0.94062941556798 1.0 1.0 1.0 1.0</Array>
			</VectorInstance>
			<VectorInstance id="491">
				<Array type="real">0.0 -0.10196850357925245 1.5993752525035425 1.6161860514010387 -0.6938815656285331 1.1028749488808371 1.374500954778375 1.0139831485090287 1.0 1.0 1.0 1.0</Array>
			</VectorInstance>
			<VectorInstance id="494">
				<Array type="real">0.4 -0.20564798678521432 1.4950546796616822 1.5062495311766226 1.3008885881622678 0.9903468791604554 -0.726596880899614 1.0139831485090287 1.0 1.0 1.0 1.0</Array>
			</VectorInstance>
			<VectorInstance id="496">
				<Array type="real">0.9 1.6773313977393038 -0.6852325724357391 -0.6859138299378077 -0.6938815656285331 -0.6771145176051999 1.374500954778375 -0.5286277476497871 1.0 1.0 1.0 1.0</Array>
			</VectorInstance>
			<VectorInstance id="498">
				<Array type="real">0.0 -1.5762939621766368 1.5478792482833394 1.5614723959116152 1.3008885881622678 1.1131047734008719 -0.726596880899614 1.071471753334823 1.0 1.0 1.0 1.0</Array>
			</VectorInstance>
			<VectorInstance id="500">
				<Array type="real">0.6000000000000001 1.215163863842658 1.0417810133122873 1.0373380517655013 -0.6938815656285331 0.8368995113599353 1.374500954778375 0.8798430705821749 1.0 1.0 1.0 1.0</Array>
			</VectorInstance>
			<VectorInstance id="501">
				<Array type="real">0.4 0.009298505611523136 -1.3230530210286486 -1.3198301756407167 -1.2127986413600693 -1.5671092508482185 1.374500954778375 -1.745469883129101 1.0 1.0 1.0 1.0</Array>
			</VectorInstance>
			<VectorInstance id="502">
				<Array type="real">0.5 1.58719319274402 1.1300810781855462 1.1274294585643247 1.3008885881622678 1.1233345979209066 -0.726596880899614 1.1289603581606173 1.0 1.0 1.0 1.0</Array>
			</VectorInstance>
			<VectorInstance id="510">
				<Array type="real">0.30000000000000004 -1.4348572657807235 -0.8767578512028505 -0.8762667812952346 1.0782350520417434 -0.4622882026844711 -0.922970843186909 -0.9118851131550828 1.0 1.0 1.0 1.0</Array>
			</VectorInstance>
			<VectorInstance id="513">
				<Array type="real">0.1 -0.2764415086223865 0.591284611908486 0.5867264991037627 -1.2127986413600693 0.5606942493189983 -0.726596880899614 0.6307257830037325 1.0 1.0 1.0 1.0</Array>
			</VectorInstance>
			<VectorInstance id="517">
				<Array type="real">0.6000000000000001 1.1181998924066108 -0.34589037034298104 -0.34864874355184794 -1.2127986413600693 -0.04286539736304875 0.22645893223745586 -0.13578894800685867 1.0 1.0 1.0 1.0</Array>
			</VectorInstance>
			<VectorInstance id="518">
				<Array type="real">0.9 -0.153036462486288 1.1603730532218985 1.158902101728395 0.21094412057240852 1.041496001760629 -0.726596880899614 0.9660759778208666 1.0 1.0 1.0 1.0</Array>
			</VectorInstance>
			<VectorInstance id="519">
				<Array type="real">0.9 0.4360542438617396 0.844164125427869 0.8396665344234814 -0.6938815656285331 0.8368995113599353 1.374500954778375 0.8798430705821749 1.0 1.0 1.0 1.0</Array>
			</VectorInstance>
			<VectorInstance id="523">
				<Array type="real">0.1 -0.8196963413527745 0.5380890346108905 0.5335299359873451 0.5465400487306107 0.44816617959861654 1.374500954778375 0.927750241270337 1.0 1.0 1.0 1.0</Array>
			</VectorInstance>
			<VectorInstance id="525">
				<Array type="real">0.2 0.20113160973748062 0.7698563877614172 0.7653325199340958 0.21094412057240852 0.6936819680794495 -0.726596880899614 0.9469131095456018 1.0 1.0 1.0 1.0</Array>
			</VectorInstance>
			<VectorInstance id="528">
				<Array type="real">0.1 -0.01735305527833114 -0.8926016883733865 -0.8920136382409711 0.21094412057240852 -0.7691829382855122 1.1399792671744877 -0.6531863914390079 1.0 1.0 1.0 1.0</Array>
			</VectorInstance>
			<VectorInstance id="534">
				<Array type="real">0.8 -1.7001901427556096 0.19399792146612532 0.18941335140755575 1.0782350520417434 1.0312661772405942 0.5799432055887269 0.42951566611345254 1.0 1.0 1.0 1.0</Array>
			</VectorInstance>
			<VectorInstance id="535">
				<Array type="real">0.9 -1.516555976880085 -0.4163290175317931 -0.41865623534784646 0.21094412057240852 -0.3599899574841246 -0.726596880899614 -0.3657433673100363 1.0 1.0 1.0 1.0</Array>
			</VectorInstance>
			<VectorInstance id="538">
				<Array type="real">0.30000000000000004 0.2932543988080525 -0.10381604283329894 -0.10803157197490126 -1.6132854152974492 0.2128802156378189 -0.726596880899614 0.31453845646186374 1.0 1.0 1.0 1.0</Array>
			</VectorInstance>
			<VectorInstance id="540">
				<Array type="real">0.2 1.2228516213464258 1.4794369811126704 1.49008828325863 1.3008885881622678 0.9903468791604554 -0.726596880899614 0.6498886512789973 1.0 1.0 1.0 1.0</Array>
			</VectorInstance>
			<VectorInstance id="542">
				<Array type="real">0.1 0.3219105900769857 0.16883293298964078 0.16423734394903988 -1.0893315642785288 0.7959802132797965 1.1399792671744877 0.8510987681692778 1.0 1.0 1.0 1.0</Array>
			</VectorInstance>
			<VectorInstance id="543">
				<Array type="real">0.2 -1.0902312341613705 1.6280595232774968 1.6471846031985447 -0.6938815656285331 1.1028749488808371 1.374500954778375 1.2056118312616766 1.0 1.0 1.0 1.0</Array>
			</VectorInstance>
			<VectorInstance id="555">
				<Array type="real">0.9 -0.6284345568848545 -0.028169140517508778 -0.03275288654028753 -0.6938815656285331 0.24356968919792243 1.374500954778375 0.33370132473712855 1.0 1.0 1.0 1.0</Array>
			</VectorInstance>
			<VectorInstance id="565">
				<Array type="real">0.2 -1.5427564959346465 -0.5975614556035944 -0.5987793485511854 1.3008885881622678 -0.5850460969248875 -0.726596880899614 -0.5382091817874196 1.0 1.0 1.0 1.0</Array>
			</VectorInstance>
			<VectorInstance id="566">
				<Array type="real">0.7000000000000001 0.11606511960126654 -0.48422713864441974 -0.4861387516434024 -0.6938815656285331 -0.6771145176051999 1.374500954778375 -0.5286277476497871 1.0 1.0 1.0 1.0</Array>
			</VectorInstance>
			<VectorInstance id="567">
				<Array type="real">0.4 1.4287472075816219 -0.7311422460211032 -0.7315424901286985 -0.8803178715923315 -0.5441267988447487 0.22645893223745586 -0.5956977866132135 1.0 1.0 1.0 1.0</Array>
			</VectorInstance>
			<VectorInstance id="568">
				<Array type="real">0.2 -0.555245501744683 -1.5986523991792863 -1.593742608302081 -1.0893315642785288 -1.8740039864492593 1.374500954778375 -1.649655541752777 1.0 1.0 1.0 1.0</Array>
			</VectorInstance>
			<VectorInstance id="571">
				<Array type="real">0.2 -1.3374522756612786 -0.04283635017292683 -0.047382994933672526 1.0782350520417434 0.7346012661595883 0.0758002196533827 -0.02081173835526983 1.0 1.0 1.0 1.0</Array>
			</VectorInstance>
			<VectorInstance id="576">
				<Array type="real">0.6000000000000001 -1.6541838755557483 0.32032460891505476 0.3157604564908984 -1.6132854152974492 0.8062100377998312 0.5799432055887269 1.052308885059558 1.0 1.0 1.0 1.0</Array>
			</VectorInstance>
			<VectorInstance id="578">
				<Array type="real">0.5 0.4406348242779349 1.6298226978421928 1.6490879922406028 1.3008885881622678 1.2358626676412883 -0.726596880899614 1.1768675288487795 1.0 1.0 1.0 1.0</Array>
			</VectorInstance>
			<VectorInstance id="580">
				<Array type="real">1.0 -0.880516827054029 -0.4132160780698747 -0.4155623502075267 -0.6938815656285331 -0.20654258968360403 1.374500954778375 -0.08788177731869665 1.0 1.0 1.0 1.0</Array>
			</VectorInstance>
			<VectorInstance id="582">
				<Array type="real">0.30000000000000004 -1.6097612663553593 -1.147035904915748 -1.1448904613784812 -0.6938815656285331 -0.6975741666452693 0.5799432055887269 -0.8448150741916559 1.0 1.0 1.0 1.0</Array>
			</VectorInstance>
			<VectorInstance id="584">
				<Array type="real">0.2 -1.44289583360083 1.4058818610459787 1.4137525496659729 1.3008885881622678 0.9903468791604554 -0.726596880899614 0.9469131095456018 1.0 1.0 1.0 1.0</Array>
			</VectorInstance>
			<VectorInstance id="587">
				<Array type="real">0.30000000000000004 0.2356312985614289 0.5644412508503769 0.5598718570288191 1.3008885881622678 0.898278458480143 0.5799432055887269 0.37202706128765817 1.0 1.0 1.0 1.0</Array>
			</VectorInstance>
			<VectorInstance id="588">
				<Array type="real">0.9 -0.3762219857410398 0.726875916007983 0.7223412124564629 1.4572687286422183 0.16173109303764535 1.1399792671744877 0.2953755881865989 1.0 1.0 1.0 1.0</Array>
			</VectorInstance>
			<VectorInstance id="590">
				<Array type="real">0.1 0.700174319457283 -0.1686012244840072 -0.1724412738575403 1.0782350520417434 0.24356968919792243 0.0758002196533827 -0.29867332834660953 1.0 1.0 1.0 1.0</Array>
			</VectorInstance>
			<VectorInstance id="591">
				<Array type="real">0.5 1.656964353087862 -1.1111328653328276 -1.1092071845217397 1.3008885881622678 -0.7180338156853387 0.22645893223745586 -0.8064893376411263 1.0 1.0 1.0 1.0</Array>
			</VectorInstance>
			<VectorInstance id="593">
				<Array type="real">0.1 0.7818128916452721 0.3544680073492404 0.34990908203513166 1.0782350520417434 0.6323030209592412 0.0758002196533827 0.5540743099026738 1.0 1.0 1.0 1.0</Array>
			</VectorInstance>
			<VectorInstance id="596">
				<Array type="real">0.4 0.6275164913675675 1.0425194972482021 1.0380825508004023 -0.6938815656285331 0.8368995113599353 1.374500954778375 0.9373316754079694 1.0 1.0 1.0 1.0</Array>
			</VectorInstance>
			<VectorInstance id="599">
				<Array type="real">0.30000000000000004 1.6920854773293246 -1.8382003342766282 -1.8318242690148836 -0.8803178715923315 -2.160439073010231 0.22645893223745586 -2.0520757755333374 1.0 1.0 1.0 1.0</Array>
			</VectorInstance>
			<VectorInstance id="601">
				<Array type="real">0.4 1.6095147520150639 0.08394614793501222 0.07931177715181728 -1.0893315642785288 0.8164398623198659 0.0758002196533827 0.5924000464532034 1.0 1.0 1.0 1.0</Array>
			</VectorInstance>
			<VectorInstance id="602">
				<Array type="real">0.7000000000000001 -1.0541579104898453 -0.24381705005251694 -0.2472002146828835 1.3008885881622678 -0.10424434448325698 1.1399792671744877 -0.011230304217637429 1.0 1.0 1.0 1.0</Array>
			</VectorInstance>
			<VectorInstance id="605">
				<Array type="real">0.30000000000000004 0.5353435865375186 0.8159462655608084 0.811442295067352 -0.6938815656285331 0.8368995113599353 1.374500954778375 0.7265401243800566 1.0 1.0 1.0 1.0</Array>
			</VectorInstance>
			<VectorInstance id="607">
				<Array type="real">0.6000000000000001 -1.1089344355981767 0.7730223284627553 0.7684966408324252 -1.2127986413600693 0.3663275834383389 1.374500954778375 0.7552844267929537 1.0 1.0 1.0 1.0</Array>
			</VectorInstance>
			<VectorInstance id="608">
				<Array type="real">0.7000000000000001 1.3918720317584652 0.5911750760136852 0.586617633678848 -1.2127986413600693 0.5606942493189983 -0.726596880899614 0.6307257830037325 1.0 1.0 1.0 1.0</Array>
			</VectorInstance>
			<VectorInstance id="612">
				<Array type="real">0.6000000000000001 0.9739667366318823 1.1919759255798987 1.1916776182035418 -0.6938815656285331 0.8880486339601082 1.374500954778375 1.0044017143713961 1.0 1.0 1.0 1.0</Array>
			</VectorInstance>
			<VectorInstance id="618">
				<Array type="real">0.1 -1.5015513184926792 -0.4856864394364428 -0.48758912004629923 1.3008885881622678 -0.5850460969248875 -0.726596880899614 -0.6340235231637431 1.0 1.0 1.0 1.0</Array>
			</VectorInstance>
			<VectorInstance id="619">
				<Array type="real">0.8 1.0552244290478463 0.59790623341999 0.5933427075082605 -0.6938815656285331 0.3765574079583736 1.374500954778375 0.9469131095456018 1.0 1.0 1.0 1.0</Array>
			</VectorInstance>
			<VectorInstance id="623">
				<Array type="real">0.5 -0.3526675787868625 0.9149631810447352 0.91048524922449 1.3008885881622678 0.9187381075202125 -0.726596880899614 0.8990059388574397 1.0 1.0 1.0 1.0</Array>
			</VectorInstance>
			<VectorInstance id="627">
				<Array type="real">0.2 0.12502581739574933 -1.3518715616091326 -1.3484723177570028 -0.8803178715923315 -1.4238917075677329 -0.726596880899614 -1.5921669369269829 1.0 1.0 1.0 1.0</Array>
			</VectorInstance>
			<VectorInstance id="629">
				<Array type="real">0.0 -0.3484578549907968 -1.4157203880300924 -1.4119303251186128 -0.6938815656285331 -1.8330846883691208 1.374500954778375 -1.7742141855419982 1.0 1.0 1.0 1.0</Array>
			</VectorInstance>
			<VectorInstance id="634">
				<Array type="real">0.5 -1.5165660000319803 -0.14133032009457897 -0.14532324769006094 0.21094412057240852 -0.10424434448325698 -0.726596880899614 0.01751399819525978 1.0 1.0 1.0 1.0</Array>
			</VectorInstance>
			<VectorInstance id="636">
				<Array type="real">0.9 0.003525170119775839 -0.7454137130888541 -0.745726601458723 1.0782350520417434 -0.605505745964957 0.5799432055887269 -0.7585821669529643 1.0 1.0 1.0 1.0</Array>
			</VectorInstance>
			<VectorInstance id="637">
				<Array type="real">0.5 0.17281620563299085 -0.010463193135359936 -0.015056987309786569 1.3008885881622678 0.4583960041186512 -0.726596880899614 0.42951566611345254 1.0 1.0 1.0 1.0</Array>
			</VectorInstance>
			<VectorInstance id="638">
				<Array type="real">1.0 -0.9767691547055034 0.657122751515666 0.6525830576013981 -0.6938815656285331 0.8368995113599353 1.374500954778375 0.9373316754079694 1.0 1.0 1.0 1.0</Array>
			</VectorInstance>
			<VectorInstance id="642">
				<Array type="real">0.4 -0.47984133003562934 -1.417476495762866 -1.4136756837051496 -0.6938815656285331 -1.8330846883691208 1.374500954778375 -1.7358884489914685 1.0 1.0 1.0 1.0</Array>
			</VectorInstance>
			<VectorInstance id="643">
				<Array type="real">0.5 0.19319327343632808 0.9958501392311553 0.9913933306635675 -0.6938815656285331 0.8368995113599353 1.374500954778375 0.9373316754079694 1.0 1.0 1.0 1.0</Array>
			</VectorInstance>
			<VectorInstance id="645">
				<Array type="real">0.0 1.6509304156468343 -1.702294556156574 -1.696750370998857 -1.6132854152974492 -2.017221529729745 1.374500954778375 -1.9754243024322784 1.0 1.0 1.0 1.0</Array>
			</VectorInstance>
			<VectorInstance id="646">
				<Array type="real">0.8 -0.023356923263672513 0.4798830734801506 0.4753396104764499 0.5465400487306107 0.898278458480143 1.374500954778375 0.582818612315571 1.0 1.0 1.0 1.0</Array>
			</VectorInstance>
			<VectorInstance id="651">
				<Array type="real">1.0 0.7644527925624486 0.09172319646586626 0.08709389913927315 -1.2127986413600693 0.11058197043747182 0.22645893223745586 0.3816084954252906 1.0 1.0 1.0 1.0</Array>
			</VectorInstance>
			<VectorInstance id="652">
				<Array type="real">1.0 0.6089937066648782 1.5851002520198305 1.6008465618517576 0.21094412057240852 0.9085082830001777 -0.726596880899614 0.7265401243800566 1.0 1.0 1.0 1.0</Array>
			</VectorInstance>
			<VectorInstance id="656">
				<Array type="real">0.1 0.16846615771038959 -0.8077113699027966 -0.8076429339320238 0.21094412057240852 -0.7487232892454428 1.1399792671744877 -0.7490007328153319 1.0 1.0 1.0 1.0</Array>
			</VectorInstance>
			<VectorInstance id="659">
				<Array type="real">0.6000000000000001 1.6280676061734392 0.15242728268125583 0.14782675909011334 0.21094412057240852 0.5402346002789289 -1.273173910159811 0.43909710025108495 1.0 1.0 1.0 1.0</Array>
			</VectorInstance>
			<VectorInstance id="661">
				<Array type="real">0.30000000000000004 0.07880906400608477 1.4024509141475419 1.4101951085227902 -0.6938815656285331 0.8880486339601082 1.374500954778375 0.7936101633434833 1.0 1.0 1.0 1.0</Array>
			</VectorInstance>
			<VectorInstance id="662">
				<Array type="real">0.9 0.7505607040354317 0.9513926996058915 0.9469340958435354 1.3008885881622678 0.9187381075202125 -0.726596880899614 0.927750241270337 1.0 1.0 1.0 1.0</Array>
			</VectorInstance>
			<VectorInstance id="663">
				<Array type="real">0.9 -1.7003605363378314 -0.5208015272599901 -0.5224892682012344 1.3008885881622678 -0.5850460969248875 -0.726596880899614 -0.5956977866132135 1.0 1.0 1.0 1.0</Array>
			</VectorInstance>
			<VectorInstance id="664">
				<Array type="real">0.8 0.029034091693555128 0.15411978892672565 0.14951944085814298 0.21094412057240852 0.038973198797228895 -1.143125639715958 0.7648658609305862 1.0 1.0 1.0 1.0</Array>
			</VectorInstance>
			<VectorInstance id="665">
				<Array type="real">0.4 1.0727749680166823 -0.8360140317529288 -0.8357723550148404 -1.2127986413600693 -0.6975741666452693 0.5799432055887269 -0.8256522059163911 1.0 1.0 1.0 1.0</Array>
			</VectorInstance>
			<VectorInstance id="667">
				<Array type="real">0.30000000000000004 0.11879141691681389 -1.5991894784054062 -1.5942764000629535 -1.0893315642785288 -1.8740039864492593 1.374500954778375 -1.7837956196796305 1.0 1.0 1.0 1.0</Array>
			</VectorInstance>
			<VectorInstance id="672">
				<Array type="real">1.0 -1.4581009550261435 0.6648079312315259 0.6602703613155411 1.0782350520417434 0.898278458480143 -0.10220051894605618 0.6882143878295269 1.0 1.0 1.0 1.0</Array>
			</VectorInstance>
			<VectorInstance id="676">
				<Array type="real">0.2 -1.7086997987147996 0.5122350300219496 0.5076866888277387 0.21094412057240852 0.7652907397196924 1.374500954778375 0.9085873729950722 1.0 1.0 1.0 1.0</Array>
			</VectorInstance>
			<VectorInstance id="677">
				<Array type="real">0.0 -0.4989153880925653 -0.009286565620242083 -0.013887561938927904 -0.6938815656285331 0.39701705699844303 0.22645893223745586 0.43909710025108495 1.0 1.0 1.0 1.0</Array>
			</VectorInstance>
			<VectorInstance id="680">
				<Array type="real">0.7000000000000001 -0.8086708742678403 -0.9936432512031467 -0.9924367250429964 -1.2127986413600693 -0.7998724118456164 -0.922970843186909 -0.9502108497056123 1.0 1.0 1.0 1.0</Array>
			</VectorInstance>
			<VectorInstance id="681">
				<Array type="real">0.4 -0.4034849588965132 -0.4120217834749503 -0.41437536589716567 0.21094412057240852 -0.3599899574841246 -0.726596880899614 -0.19327755283265308 1.0 1.0 1.0 1.0</Array>
			</VectorInstance>
			<VectorInstance id="682">
				<Array type="real">0.6000000000000001 1.2708424726215752 -1.2663840958410806 -1.2635081212928752 0.21094412057240852 -1.209065392647004 -1.273173910159811 -1.2759796103851135 1.0 1.0 1.0 1.0</Array>
			</VectorInstance>
			<VectorInstance id="684">
				<Array type="real">0.5 -1.5014911795813068 1.405256446420826 1.41306775102538 -0.6938815656285331 0.8880486339601082 1.374500954778375 1.0139831485090287 1.0 1.0 1.0 1.0</Array>
			</VectorInstance>
			<VectorInstance id="688">
				<Array type="real">0.5 1.3418464806485506 0.7162650678761544 0.7117250776333225 1.3008885881622678 0.8471293358799701 0.22645893223745586 0.7936101633434833 1.0 1.0 1.0 1.0</Array>
			</VectorInstance>
			<VectorInstance id="691">
				<Array type="real">0.8 1.0025928584451291 0.05059776809212242 0.04595681567309172 -0.6938815656285331 0.4583960041186512 0.22645893223745586 -0.09746321145632905 1.0 1.0 1.0 1.0</Array>
			</VectorInstance>
			<VectorInstance id="693">
				<Array type="real">0.8 -0.4602661143839237 -0.9102263671884251 -0.9095304362885478 0.21094412057240852 -1.0658478493665182 -1.273173910159811 -0.9502108497056123 1.0 1.0 1.0 1.0</Array>
			</VectorInstance>
			<VectorInstance id="699">
				<Array type="real">0.1 -0.6085686698281824 0.7249184035654146 0.7203851465958975 1.0782350520417434 0.5300047757588942 1.5392166610370834 0.36244562715002576 1.0 1.0 1.0 1.0</Array>
			</VectorInstance>
			<VectorInstance id="700">
				<Array type="real">0.5 1.017316868579464 0.8334472748172009 0.8289520695391277 1.3008885881622678 0.9187381075202125 -0.726596880899614 0.927750241270337 1.0 1.0 1.0 1.0</Array>
			</VectorInstance>
			<VectorInstance id="702">
				<Array type="real">0.2 1.722295257142044 0.8485561614677833 0.8440632928748779 -0.6938815656285331 0.8368995113599353 1.374500954778375 0.9373316754079694 1.0 1.0 1.0 1.0</Array>
			</VectorInstance>
			<VectorInstance id="704">
				<Array type="real">0.7000000000000001 -1.0086728471885444 1.227663426789179 1.2287620984325736 1.3008885881622678 0.9903468791604554 -0.726596880899614 1.0139831485090287 1.0 1.0 1.0 1.0</Array>
			</VectorInstance>
			<VectorInstance id="705">
				<Array type="real">0.6000000000000001 -0.013704627988407499 0.16540551950716537 0.16080983895817486 -1.0893315642785288 0.7857503887597618 1.374500954778375 0.5732371781779386 1.0 1.0 1.0 1.0</Array>
			</VectorInstance>
			<VectorInstance id="706">
				<Array type="real">0.7000000000000001 -1.455063940001839 0.6904145967031748 0.6858712951100147 0.21094412057240852 0.7652907397196924 -1.273173910159811 0.6115629147284682 1.0 1.0 1.0 1.0</Array>
			</VectorInstance>
			<VectorInstance id="707">
				<Array type="real">0.7000000000000001 -0.7094116010477476 -0.3787546721991707 -0.38131188281417966 1.3008885881622678 -0.0019460992829099268 -0.726596880899614 -0.7681636010905967 1.0 1.0 1.0 1.0</Array>
			</VectorInstance>
			<VectorInstance id="713">
				<Array type="real">0.5 5.583171587390341E-4 0.49798476344996667 0.49343234173970474 0.5465400487306107 0.9494275810803166 -0.726596880899614 0.9948202802337638 1.0 1.0 1.0 1.0</Array>
			</VectorInstance>
			<VectorInstance id="714">
				<Array type="real">0.2 0.9861348430328912 1.3077695000481486 1.3119528420069606 -0.6938815656285331 0.8880486339601082 1.374500954778375 0.9181688071327045 1.0 1.0 1.0 1.0</Array>
			</VectorInstance>
			<VectorInstance id="715">
				<Array type="real">0.30000000000000004 1.1112839175987883 1.0259477763896354 1.0215069119101534 1.3008885881622678 0.9187381075202125 -0.726596880899614 0.9373316754079694 1.0 1.0 1.0 1.0</Array>
			</VectorInstance>
			<VectorInstance id="721">
				<Array type="real">0.7000000000000001 1.4821605840321799 -0.7510035771396542 -0.7512822499172768 -0.8803178715923315 -1.0351583758064147 1.374500954778375 -0.7202564304024347 1.0 1.0 1.0 1.0</Array>
			</VectorInstance>
			<VectorInstance id="722">
				<Array type="real">0.5 -0.5011204815095521 -1.4317726967423459 -1.4278843775504775 1.3008885881622678 -1.720556618648739 -0.726596880899614 -1.745469883129101 1.0 1.0 1.0 1.0</Array>
			</VectorInstance>
			<VectorInstance id="728">
				<Array type="real">0.8 1.2069248329846438 -0.8136404418858829 -0.8135357140290232 -0.8803178715923315 -0.8714811834858593 1.1399792671744877 -0.586116352475581 1.0 1.0 1.0 1.0</Array>
			</VectorInstance>
			<VectorInstance id="729">
				<Array type="real">0.5 0.6111085917148065 -0.25021606635845817 -0.2535600625706464 0.21094412057240852 -0.4622882026844711 -1.273173910159811 -0.09746321145632905 1.0 1.0 1.0 1.0</Array>
			</VectorInstance>
			<VectorInstance id="734">
				<Array type="real">0.8 0.14380920404771882 -1.1119738183316206 -1.1100429900420532 1.3008885881622678 -0.7180338156853387 0.22645893223745586 -1.084350927632466 1.0 1.0 1.0 1.0</Array>
			</VectorInstance>
			<VectorInstance id="736">
				<Array type="real">0.1 0.6042126632107749 -1.7928595406610357 -1.7867610066759694 -0.6938815656285331 -2.1706688975302653 1.374500954778375 -1.7358884489914685 1.0 1.0 1.0 1.0</Array>
			</VectorInstance>
			<VectorInstance id="737">
				<Array type="real">1.0 0.2768364760033961 0.8942361630156621 0.8897586770358779 1.3008885881622678 0.9187381075202125 -0.726596880899614 0.927750241270337 1.0 1.0 1.0 1.0</Array>
			</VectorInstance>
			<VectorInstance id="739">
				<Array type="real">0.8 0.3653208609359398 0.16322540185903409 0.15863253045987943 -0.6938815656285331 0.8164398623198659 1.374500954778375 0.9181688071327045 1.0 1.0 1.0 1.0</Array>
			</VectorInstance>
			<VectorInstance id="741">
				<Array type="real">0.7000000000000001 -0.7380076534053084 -0.6665125346726929 -0.6673083776410833 1.3008885881622678 -0.5850460969248875 -0.726596880899614 -0.9023036790174503 1.0 1.0 1.0 1.0</Array>
			</VectorInstance>
			<VectorInstance id="746">
				<Array type="real">0.9 0.63240778949252 0.18376868225811877 0.17918351325346776 -0.6938815656285331 0.6016135473991371 0.22645893223745586 0.5636557440403062 1.0 1.0 1.0 1.0</Array>
			</VectorInstance>
			<VectorInstance id="748">
				<Array type="real">0.0 0.9029025896935344 0.13974231938013543 0.13513515761779135 -1.2127986413600693 0.67322231903938 0.22645893223745586 0.30495702232423133 1.0 1.0 1.0 1.0</Array>
			</VectorInstance>
			<VectorInstance id="749">
				<Array type="real">0.1 -0.5821075488243406 -0.6335528305855477 -0.6345504201054387 1.3008885881622678 -0.5850460969248875 -0.726596880899614 -0.5286277476497871 1.0 1.0 1.0 1.0</Array>
			</VectorInstance>
			<VectorInstance id="750">
				<Array type="real">0.1 0.19589952444808464 1.2870884164265726 1.2904817707834475 -0.6938815656285331 0.8880486339601082 1.374500954778375 0.975657411958499 1.0 1.0 1.0 1.0</Array>
			</VectorInstance>
			<VectorInstance id="751">
				<Array type="real">1.0 1.7096660857538468 0.9383084603011426 0.9338456623384596 1.3008885881622678 0.9187381075202125 -0.726596880899614 0.927750241270337 1.0 1.0 1.0 1.0</Array>
			</VectorInstance>
			<VectorInstance id="753">
				<Array type="real">0.1 -0.33973771284180343 -1.524418863248022 -1.5199634563009707 1.3008885881622678 -1.8433145128891553 -0.726596880899614 -1.9179356976064843 1.0 1.0 1.0 1.0</Array>
			</VectorInstance>
			<VectorInstance id="755">
				<Array type="real">0.4 -1.4512150496740075 -1.3991345335076804 -1.3954459927137763 1.3008885881622678 -1.4238917075677329 -0.726596880899614 -1.4676082931377616 1.0 1.0 1.0 1.0</Array>
			</VectorInstance>
			<VectorInstance id="756">
				<Array type="real">0.9 1.591663518489366 1.2761701611061096 1.2791457194407094 0.21094412057240852 0.9085082830001777 -0.726596880899614 0.6307257830037325 1.0 1.0 1.0 1.0</Array>
			</VectorInstance>
			<VectorInstance id="757">
				<Array type="real">0.6000000000000001 -0.5164559039095059 1.4380960143652863 1.4471742351148074 1.3008885881622678 0.9903468791604554 -0.726596880899614 0.9469131095456018 1.0 1.0 1.0 1.0</Array>
			</VectorInstance>
			<VectorInstance id="758">
				<Array type="real">0.2 -1.278917068592174 -0.2863205106511736 -0.28944351133771506 1.3008885881622678 0.008283725237124779 -0.726596880899614 0.04625830060815646 1.0 1.0 1.0 1.0</Array>
			</VectorInstance>
			<VectorInstance id="761">
				<Array type="real">0.0 -0.05645337082226552 -1.2212588405991283 -1.21865907801589 0.5465400487306107 -0.8407917099257551 1.1399792671744877 -0.8256522059163911 1.0 1.0 1.0 1.0</Array>
			</VectorInstance>
			<VectorInstance id="762">
				<Array type="real">0.8 0.29143018516309066 0.5344001483472778 0.5298355351160439 1.0782350520417434 0.5300047757588942 1.374500954778375 0.9948202802337638 1.0 1.0 1.0 1.0</Array>
			</VectorInstance>
			<VectorInstance id="763">
				<Array type="real">0.7000000000000001 -0.9559109756111872 0.14452656459175575 0.13992172452614077 0.06790960872432988 0.8164398623198659 -1.143125639715958 0.5444928757650414 1.0 1.0 1.0 1.0</Array>
			</VectorInstance>
			<VectorInstance id="765">
				<Array type="real">0.9 1.1952578841784045 -0.7309373078953469 -0.7313388064304709 -0.8803178715923315 -0.5441267988447487 0.22645893223745586 -0.5956977866132135 1.0 1.0 1.0 1.0</Array>
			</VectorInstance>
			<VectorInstance id="766">
				<Array type="real">0.1 -0.40989977610956574 0.1050335743921394 0.10041059885787995 -1.0893315642785288 0.7141416171195188 0.0758002196533827 0.8223544657563806 1.0 1.0 1.0 1.0</Array>
			</VectorInstance>
			<VectorInstance id="771">
				<Array type="real">0.1 1.670144797830306 -1.3985373862102182 -1.3948525005585957 -0.8803178715923315 -2.0888303013699883 -0.726596880899614 -1.429282556587232 1.0 1.0 1.0 1.0</Array>
			</VectorInstance>
			<VectorInstance id="773">
				<Array type="real">0.8 -1.5108127108440237 0.16230671370909222 0.15770893024205412 -0.6938815656285331 0.8164398623198659 1.374500954778375 0.7073772561047917 1.0 1.0 1.0 1.0</Array>
			</VectorInstance>
			<VectorInstance id="779">
				<Array type="real">0.9 0.1714430338233218 -0.30878243591725224 -0.311767947021044 0.21094412057240852 -0.1656232916034652 -0.922970843186909 -0.15495181628212348 1.0 1.0 1.0 1.0</Array>
			</VectorInstance>
			<VectorInstance id="785">
				<Array type="real">0.5 1.3429390042051488 1.3544176575694276 1.360355814639228 1.3008885881622678 0.9903468791604554 -0.726596880899614 0.9469131095456018 1.0 1.0 1.0 1.0</Array>
			</VectorInstance>
			<VectorInstance id="787">
				<Array type="real">0.9 -1.1006653352844762 0.38267880038437835 0.37812980960336057 1.3008885881622678 0.9085082830001777 0.22645893223745586 0.4965857050768794 1.0 1.0 1.0 1.0</Array>
			</VectorInstance>
			<VectorInstance id="790">
				<Array type="real">0.9 0.7138559217944966 -0.24182773686629666 -0.24522307809491525 0.21094412057240852 -0.4929776762445752 -0.922970843186909 -0.10704464559396146 1.0 1.0 1.0 1.0</Array>
			</VectorInstance>
			<VectorInstance id="791">
				<Array type="real">0.6000000000000001 -1.6455840112294997 0.6808178389522436 0.6762735787780124 1.0782350520417434 0.49931530219879006 1.5392166610370834 0.32411989059949614 1.0 1.0 1.0 1.0</Array>
			</VectorInstance>
			<VectorInstance id="793">
				<Array type="real">0.7000000000000001 0.38211966351262117 -0.9286778653384113 -0.9278689927048359 -0.8803178715923315 -0.7998724118456164 0.22645893223745586 -0.9310479814303476 1.0 1.0 1.0 1.0</Array>
			</VectorInstance>
			<VectorInstance id="802">
				<Array type="real">0.9 -0.9374082372122888 1.5676593108347803 1.5823710457073508 -0.6938815656285331 0.9903468791604554 1.374500954778375 1.119378924022985 1.0 1.0 1.0 1.0</Array>
			</VectorInstance>
			<VectorInstance id="803">
				<Array type="real">0.0 -0.6559781782933989 -1.028164725145193 -1.0267468928306516 -0.8803178715923315 -1.1272267964867264 -0.726596880899614 -0.6340235231637431 1.0 1.0 1.0 1.0</Array>
			</VectorInstance>
			<VectorInstance id="807">
				<Array type="real">0.30000000000000004 0.04238493001822075 -1.3107107990757756 -1.3075635005043524 1.3008885881622678 -1.3011338133273163 0.22645893223745586 -1.4676082931377616 1.0 1.0 1.0 1.0</Array>
			</VectorInstance>
			<VectorInstance id="808">
				<Array type="real">0.7000000000000001 -0.21358632308636685 0.3327516328509992 0.3281781385069832 -1.0893315642785288 0.6936819680794495 0.0758002196533827 0.6882143878295269 1.0 1.0 1.0 1.0</Array>
			</VectorInstance>
			<VectorInstance id="809">
				<Array type="real">0.8 -0.2613566650198176 -0.43554020011346206 -0.43774982616273705 -0.6938815656285331 -0.06332504640311816 0.22645893223745586 -0.2507661576584475 1.0 1.0 1.0 1.0</Array>
			</VectorInstance>
			<VectorInstance id="812">
				<Array type="real">0.1 0.8457606007378897 -1.4920951740339135 -1.4878376205874118 -0.6938815656285331 -1.955842582609537 1.374500954778375 -1.8508656586430574 1.0 1.0 1.0 1.0</Array>
			</VectorInstance>
			<VectorInstance id="813">
				<Array type="real">0.6000000000000001 1.5349324787614325 1.2492455314808901 1.2511673052376133 1.3008885881622678 0.9903468791604554 -0.726596880899614 0.7744472950682185 1.0 1.0 1.0 1.0</Array>
			</VectorInstance>
			<VectorInstance id="814">
				<Array type="real">0.4 0.8707783878687947 0.9504704780399883 0.9460069838378096 -0.6938815656285331 0.8368995113599353 1.374500954778375 0.9373316754079694 1.0 1.0 1.0 1.0</Array>
			</VectorInstance>
			<VectorInstance id="816">
				<Array type="real">0.5 0.4532439493623413 -1.2145912846801272 -1.2120323342476909 -1.2127986413600693 -0.8714811834858593 -0.726596880899614 -1.1035137959077308 1.0 1.0 1.0 1.0</Array>
			</VectorInstance>
			<VectorInstance id="818">
				<Array type="real">0.30000000000000004 -1.415111656546796 1.1485361097514937 1.1466319148041302 1.3008885881622678 1.0824152998407677 0.22645893223745586 0.7552844267929537 1.0 1.0 1.0 1.0</Array>
			</VectorInstance>
			<VectorInstance id="819">
				<Array type="real">0.7000000000000001 1.502006424785061 -1.2872913180841807 -1.2842873702999944 0.21094412057240852 -1.4545811811278369 1.374500954778375 -1.410119688311967 1.0 1.0 1.0 1.0</Array>
			</VectorInstance>
			<VectorInstance id="828">
				<Array type="real">0.7000000000000001 -1.705963478247357 -0.8365228436513581 -0.836278052472509 -1.2127986413600693 -0.6975741666452693 0.5799432055887269 -0.8256522059163911 1.0 1.0 1.0 1.0</Array>
			</VectorInstance>
			<VectorInstance id="830">
				<Array type="real">0.5 0.014380243622488204 1.0996795672543929 1.0959041385817474 0.21094412057240852 1.041496001760629 -0.726596880899614 0.9373316754079694 1.0 1.0 1.0 1.0</Array>
			</VectorInstance>
			<VectorInstance id="837">
				<Array type="real">0.2 5.683403106344287E-4 1.4581128157861352 1.4679218780308223 1.3008885881622678 0.9903468791604554 -0.726596880899614 0.975657411958499 1.0 1.0 1.0 1.0</Array>
			</VectorInstance>
			<VectorInstance id="841">
				<Array type="real">0.8 -0.8524920943545057 -0.414555242719213 -0.4168933178218073 1.3008885881622678 -0.11447416900329169 -0.726596880899614 -0.18369611869502067 1.0 1.0 1.0 1.0</Array>
			</VectorInstance>
			<VectorInstance id="842">
				<Array type="real">0.6000000000000001 1.0228897410333033 0.7576166348714224 0.7530904273130349 0.21094412057240852 0.6936819680794495 -0.726596880899614 0.46784140266398216 1.0 1.0 1.0 1.0</Array>
			</VectorInstance>
			<VectorInstance id="846">
				<Array type="real">0.9 -0.7549467801085252 1.6344550061674767 1.6541098489382842 1.3008885881622678 1.2358626676412883 -0.726596880899614 1.1768675288487795 1.0 1.0 1.0 1.0</Array>
			</VectorInstance>
			<VectorInstance id="850">
				<Array type="real">0.6000000000000001 -1.2728831311511464 1.4580386140509476 1.4678481304849125 1.3008885881622678 0.9903468791604554 -0.726596880899614 0.975657411958499 1.0 1.0 1.0 1.0</Array>
			</VectorInstance>
			<VectorInstance id="853">
				<Array type="real">0.1 0.33281577933917506 -0.734965402091246 -0.7353422446370141 1.3008885881622678 -0.9021706570459634 -0.726596880899614 -0.6627678255766403 1.0 1.0 1.0 1.0</Array>
			</VectorInstance>
			<VectorInstance id="854">
				<Array type="real">0.2 1.0327424993464762 0.42554973624301173 0.4210017162923774 -1.0893315642785288 0.8266696868399006 0.0758002196533827 0.8223544657563806 1.0 1.0 1.0 1.0</Array>
			</VectorInstance>
			<VectorInstance id="859">
				<Array type="real">0.5 0.1098106728185403 1.4806030083799044 1.4912577086294885 1.3008885881622678 0.9903468791604554 -0.726596880899614 0.975657411958499 1.0 1.0 1.0 1.0</Array>
			</VectorInstance>
			<VectorInstance id="862">
				<Array type="real">0.9 1.7250315776094867 1.6092405498675337 1.6268302805273829 1.3008885881622678 1.2358626676412883 -0.726596880899614 1.1768675288487795 1.0 1.0 1.0 1.0</Array>
			</VectorInstance>
			<VectorInstance id="863">
				<Array type="real">0.9 0.9265371818628749 0.5441417761526229 0.539587770115667 -1.2127986413600693 0.8675889849200394 0.22645893223745586 0.8415173340316453 1.0 1.0 1.0 1.0</Array>
			</VectorInstance>
			<VectorInstance id="864">
				<Array type="real">0.6000000000000001 1.6694431771976281 -1.2907964667178051 -1.287771063897267 -1.2127986413600693 -1.239754866207108 0.22645893223745586 -1.6304926734775123 1.0 1.0 1.0 1.0</Array>
			</VectorInstance>
			<VectorInstance id="866">
				<Array type="real">1.0 0.5601809569343065 1.5930787052604793 1.6093731828741145 0.21094412057240852 1.1233345979209066 -0.726596880899614 0.8031915974811158 1.0 1.0 1.0 1.0</Array>
			</VectorInstance>
			<VectorInstance id="868">
				<Array type="real">1.0 -0.21513991163015303 0.4532305168839525 0.4486851403118335 0.21094412057240852 1.0108065282005247 -1.6950079206288367 0.9660759778208666 1.0 1.0 1.0 1.0</Array>
			</VectorInstance>
			<VectorInstance id="873">
				<Array type="real">0.6000000000000001 0.45907742376546096 0.8285605605427024 0.8240636607816644 1.3008885881622678 0.9187381075202125 -0.726596880899614 0.9373316754079694 1.0 1.0 1.0 1.0</Array>
			</VectorInstance>
			<VectorInstance id="876">
				<Array type="real">0.9 -0.49004489866514106 0.5633741592300597 0.5588112970828752 0.5465400487306107 0.46862582863868596 1.374500954778375 0.9948202802337638 1.0 1.0 1.0 1.0</Array>
			</VectorInstance>
			<VectorInstance id="877">
				<Array type="real">0.4 0.00906797311792906 0.8056039570420397 0.8011000797004487 1.3008885881622678 0.9187381075202125 -0.726596880899614 0.927750241270337 1.0 1.0 1.0 1.0</Array>
			</VectorInstance>
			<VectorInstance id="878">
				<Array type="real">1.0 0.14155399487125506 -1.2699528459620086 -1.2670550270723564 -1.6132854152974492 -0.9942390777262757 -0.726596880899614 -1.2184910055593192 1.0 1.0 1.0 1.0</Array>
			</VectorInstance>
			<VectorInstance id="880">
				<Array type="real">0.7000000000000001 0.6284085518862575 0.09144405660492239 0.08681646789513552 -1.2127986413600693 0.11058197043747182 0.22645893223745586 0.3816084954252906 1.0 1.0 1.0 1.0</Array>
			</VectorInstance>
			<VectorInstance id="881">
				<Array type="real">0.30000000000000004 0.601726921540717 -0.19619013630995374 -0.19986131378446062 -0.6938815656285331 -0.4929776762445752 1.374500954778375 0.04625830060815646 1.0 1.0 1.0 1.0</Array>
			</VectorInstance>
			<VectorInstance id="882">
				<Array type="real">0.2 -1.624635623768125 1.2438818060516144 1.2456046332032586 0.21094412057240852 0.9085082830001777 -0.726596880899614 1.0139831485090287 1.0 1.0 1.0 1.0</Array>
			</VectorInstance>
			<VectorInstance id="889">
				<Array type="real">0.0 -0.0789854162831126 0.6662142307841292 0.6616785882636322 1.3008885881622678 0.46862582863868596 0.5799432055887269 0.9948202802337638 1.0 1.0 1.0 1.0</Array>
			</VectorInstance>
			<VectorInstance id="891">
				<Array type="real">0.1 1.5019362627217934 0.3143248686127421 0.3097588109689841 -1.6132854152974492 0.5913837228791025 0.22645893223745586 0.8606802023069101 1.0 1.0 1.0 1.0</Array>
			</VectorInstance>
			<VectorInstance id="892">
				<Array type="real">0.6000000000000001 -1.777187995616031 0.08607326434372377 0.08144694419530699 1.0782350520417434 1.0312661772405942 -1.143125639715958 0.8510987681692778 1.0 1.0 1.0 1.0</Array>
			</VectorInstance>
			<VectorInstance id="898">
				<Array type="real">0.2 1.1228706811898646 -1.1575407505687372 -1.1553310068065976 -0.6938815656285331 -0.8203320608856858 1.374500954778375 -0.8064893376411263 1.0 1.0 1.0 1.0</Array>
			</VectorInstance>
			<VectorInstance id="902">
				<Array type="real">0.5 -0.4685652841533104 -0.5965049642311612 -0.597729323968943 1.3008885881622678 -0.5850460969248875 -0.726596880899614 -0.5286277476497871 1.0 1.0 1.0 1.0</Array>
			</VectorInstance>
			<VectorInstance id="903">
				<Array type="real">0.7000000000000001 -1.693163913276938 0.5693668327004499 0.5647988954531876 0.21094412057240852 0.7652907397196924 -1.273173910159811 0.9181688071327045 1.0 1.0 1.0 1.0</Array>
			</VectorInstance>
			<VectorInstance id="905">
				<Array type="real">0.4 1.1227604265190152 0.2927533641689148 0.28817887432055617 0.06790960872432988 0.8164398623198659 -1.143125639715958 0.6498886512789973 1.0 1.0 1.0 1.0</Array>
			</VectorInstance>
			<VectorInstance id="906">
				<Array type="real">0.1 -1.1000839924745434 -1.545584024856298 -1.5409990658248247 1.3008885881622678 -1.8433145128891553 -0.726596880899614 -1.8317027903677927 1.0 1.0 1.0 1.0</Array>
			</VectorInstance>
			<VectorInstance id="908">
				<Array type="real">0.8 -1.6984661606296017 0.5094895658200079 0.5049369589016657 0.06790960872432988 0.8164398623198659 -1.143125639715958 0.5732371781779386 1.0 1.0 1.0 1.0</Array>
			</VectorInstance>
			<VectorInstance id="909">
				<Array type="real">0.0 -0.04241093501681767 0.6186297180331017 0.6140763032726736 -0.6938815656285331 0.7141416171195188 1.374500954778375 0.2953755881865989 1.0 1.0 1.0 1.0</Array>
			</VectorInstance>
			<VectorInstance id="910">
				<Array type="real">0.9 0.4049624266822255 1.1853861048120464 1.1848471907371152 -0.6938815656285331 0.8880486339601082 1.374500954778375 1.0044017143713961 1.0 1.0 1.0 1.0</Array>
			</VectorInstance>
			<VectorInstance id="912">
				<Array type="real">0.8 1.0009189920785984 -0.8247601019161409 -0.8245873105518228 -0.6938815656285331 -0.4827478517245405 -1.6950079206288367 -0.5190463135121548 1.0 1.0 1.0 1.0</Array>
			</VectorInstance>
			<VectorInstance id="919">
				<Array type="real">1.0 -0.18990161515754939 0.5055321399433352 0.5009826857257291 0.21094412057240852 0.5300047757588942 -1.6950079206288367 0.7073772561047917 1.0 1.0 1.0 1.0</Array>
			</VectorInstance>
			<VectorInstance id="921">
				<Array type="real">0.7000000000000001 -0.5779178713320656 -0.2627561596051647 -0.2660233978294374 -0.6938815656285331 -0.23723206324370816 0.22645893223745586 -0.15495181628212348 1.0 1.0 1.0 1.0</Array>
			</VectorInstance>
			<VectorInstance id="922">
				<Array type="real">0.9 -0.7516090705273588 -0.27008446430893174 -0.27330684593502563 -1.2127986413600693 -0.10424434448325698 -0.922970843186909 -0.5956977866132135 1.0 1.0 1.0 1.0</Array>
			</VectorInstance>
			<VectorInstance id="923">
				<Array type="real">0.7000000000000001 1.6183451488349065 0.14927194222780163 0.14466966176758497 0.21094412057240852 0.6016135473991371 -0.726596880899614 0.44867853438871735 1.0 1.0 1.0 1.0</Array>
			</VectorInstance>
			<VectorInstance id="925">
				<Array type="real">0.0 -0.1450580335775539 -0.3356540643030519 -0.3384750940041676 -1.2127986413600693 -0.26792153680381225 -0.922970843186909 -0.45197627454872796 1.0 1.0 1.0 1.0</Array>
			</VectorInstance>
			<VectorInstance id="927">
				<Array type="real">0.9 1.6060066488516758 -0.20878676421204126 -0.21238083764965926 0.21094412057240852 -0.1656232916034652 -0.922970843186909 -0.3369990648971391 1.0 1.0 1.0 1.0</Array>
			</VectorInstance>
			<VectorInstance id="930">
				<Array type="real">1.0 0.27222582613151464 0.12920567298349445 0.12459277034056096 0.21094412057240852 -0.06332504640311816 -0.726596880899614 0.45825996852634976 1.0 1.0 1.0 1.0</Array>
			</VectorInstance>
			<VectorInstance id="934">
				<Array type="real">0.5 1.1053201422210286 0.42913615344374634 0.4245872517387639 -0.6938815656285331 0.9391977565602818 -1.273173910159811 0.9469131095456018 1.0 1.0 1.0 1.0</Array>
			</VectorInstance>
			<VectorInstance id="937">
				<Array type="real">0.9 0.12245989051052832 -0.37061368182430127 -0.37322072349148183 -0.6938815656285331 0.038973198797228895 0.22645893223745586 -0.44239484041109556 1.0 1.0 1.0 1.0</Array>
			</VectorInstance>
			<VectorInstance id="940">
				<Array type="real">0.5 1.2130790482484162 -0.46570143875924586 -0.46772644768120425 1.3008885881622678 -0.5850460969248875 -0.726596880899614 -0.5382091817874196 1.0 1.0 1.0 1.0</Array>
			</VectorInstance>
			<VectorInstance id="943">
				<Array type="real">0.2 1.506526866289884 1.158942019757566 1.1574131036585928 1.3008885881622678 0.8062100377998312 -0.726596880899614 0.8031915974811158 1.0 1.0 1.0 1.0</Array>
			</VectorInstance>
			<VectorInstance id="946">
				<Array type="real">0.2 1.566946425915323 0.0434178668587306 0.0387787212045178 -1.2127986413600693 0.5402346002789289 0.22645893223745586 0.06542116888342127 1.0 1.0 1.0 1.0</Array>
			</VectorInstance>
			<VectorInstance id="947">
				<Array type="real">0.8 1.0473963474175432 -0.24523748326896552 -0.24861195341887504 1.0782350520417434 -0.07355487092315287 1.374500954778375 -0.19327755283265308 1.0 1.0 1.0 1.0</Array>
			</VectorInstance>
			<VectorInstance id="948">
				<Array type="real">0.30000000000000004 0.6242188743939826 -0.8884569914507641 -0.8878943110337122 -0.8803178715923315 -0.8714811834858593 0.5799432055887269 -0.5190463135121548 1.0 1.0 1.0 1.0</Array>
			</VectorInstance>
			<VectorInstance id="949">
				<Array type="real">0.9 0.8618678058337889 -0.7204571961540871 -0.7209228435176577 -0.8803178715923315 -0.6464250440450958 -1.273173910159811 -0.8543965083292884 1.0 1.0 1.0 1.0</Array>
			</VectorInstance>
			<VectorInstance id="952">
				<Array type="real">0.30000000000000004 0.7898514594653786 -0.02354743244010892 -0.028134885451160965 0.21094412057240852 -0.10424434448325698 -0.726596880899614 0.10374690543395088 1.0 1.0 1.0 1.0</Array>
			</VectorInstance>
			<VectorInstance id="953">
				<Array type="real">0.7000000000000001 1.4980973955458572 -1.0366307897885034 -1.0351611366401932 0.21094412057240852 -1.0453882003264487 -1.273173910159811 -0.8160707717787588 1.0 1.0 1.0 1.0</Array>
			</VectorInstance>
			<VectorInstance id="954">
				<Array type="real">0.9 1.0511349830745254 -0.17828278421800994 -0.18206357270484586 0.21094412057240852 0.038973198797228895 -0.922970843186909 0.09416547129631847 1.0 1.0 1.0 1.0</Array>
			</VectorInstance>
			<VectorInstance id="957">
				<Array type="real">0.7000000000000001 1.020494207730304 -0.26663585033068843 -0.2698793409441606 -0.6938815656285331 0.059432847837298304 -1.273173910159811 -0.11662607973159386 1.0 1.0 1.0 1.0</Array>
			</VectorInstance>
			<VectorInstance id="958">
				<Array type="real">0.6000000000000001 -1.7756243839203494 -1.3561999961617435 -1.3527742579350865 -0.6938815656285331 -1.382972409487594 0.22645893223745586 -1.5825855027893505 1.0 1.0 1.0 1.0</Array>
			</VectorInstance>
			<VectorInstance id="959">
				<Array type="real">0.7000000000000001 -1.274777506859376 1.5988240396135773 1.615627677124863 -0.6938815656285331 1.1028749488808371 1.374500954778375 0.9564945436832342 1.0 1.0 1.0 1.0</Array>
			</VectorInstance>
			<VectorInstance id="966">
				<Array type="real">0.4 0.7658760801315947 -1.2956231129209612 -1.2925681661693178 0.21094412057240852 -1.4545811811278369 1.374500954778375 -1.3430496493485404 1.0 1.0 1.0 1.0</Array>
			</VectorInstance>
			<VectorInstance id="968">
				<Array type="real">0.6000000000000001 0.19398510243606426 1.5755706291721643 1.590753683425788 1.3008885881622678 1.1131047734008719 -0.726596880899614 1.071471753334823 1.0 1.0 1.0 1.0</Array>
			</VectorInstance>
			<VectorInstance id="969">
				<Array type="real">0.9 0.4601398778663728 0.49377293162407937 0.48922873162283437 -1.6132854152974492 0.9698872301203859 0.5799432055887269 1.023564582646661 1.0 1.0 1.0 1.0</Array>
			</VectorInstance>
			<VectorInstance id="971">
				<Array type="real">1.0 -0.9281267985571534 -0.6326270756036831 -0.633630331675514 1.3008885881622678 -0.5850460969248875 -0.726596880899614 -0.5286277476497871 1.0 1.0 1.0 1.0</Array>
			</VectorInstance>
			<VectorInstance id="972">
				<Array type="real">0.7000000000000001 -0.9810289942610462 0.10516431078270805 0.10054053501019758 0.06790960872432988 0.8164398623198659 -1.143125639715958 0.46784140266398216 1.0 1.0 1.0 1.0</Array>
			</VectorInstance>
			<VectorInstance id="973">
				<Array type="real">0.1 0.9148000709933678 0.2529070323731669 0.24832008165014816 -1.2127986413600693 0.5095451267188248 -0.726596880899614 0.5732371781779386 1.0 1.0 1.0 1.0</Array>
			</VectorInstance>
			<VectorInstance id="976">
				<Array type="real">0.7000000000000001 -1.2795886197691655 -0.18113425089879104 -0.18489758554053035 -0.8803178715923315 0.059432847837298304 0.22645893223745586 -0.2124404211079179 1.0 1.0 1.0 1.0</Array>
			</VectorInstance>
			<VectorInstance id="978">
				<Array type="real">0.8 0.7791868258486787 1.2230205182160112 1.2239404136452192 1.3008885881622678 0.9903468791604554 -0.726596880899614 0.8031915974811158 1.0 1.0 1.0 1.0</Array>
			</VectorInstance>
			<VectorInstance id="979">
				<Array type="real">0.30000000000000004 -0.7032874552396614 -0.787146889007944 -0.7872043283512506 -0.8803178715923315 -0.707803991165304 1.1399792671744877 -0.5669534842003168 1.0 1.0 1.0 1.0</Array>
			</VectorInstance>
			<VectorInstance id="980">
				<Array type="real">0.8 1.1099708847004917 -0.3668081928339651 -0.3694385279226687 -0.6938815656285331 -0.28838118584388167 -0.922970843186909 -0.2699290259337123 1.0 1.0 1.0 1.0</Array>
			</VectorInstance>
